<?xml version="1.0"?>
<opencv_storage>
<cascade>
  <stageType>BOOST</stageType>
  <featureType>HOG_4</featureType>
  <height>40</height>
  <width>40</width>
  <stageParams>
    <boostType>GAB</boostType>
    <minHitRate>9.9900001287460327e-001</minHitRate>
    <maxFalseAlarm>5.0000000000000000e-001</maxFalseAlarm>
    <weightTrimRate>9.4999999999999996e-001</weightTrimRate>
    <maxDepth>3</maxDepth>
    <maxWeakCount>100</maxWeakCount></stageParams>
  <featureParams>
    <maxCatCount>16</maxCatCount></featureParams>
  <stageNum>18</stageNum>
  <stages>
    <!-- stage 0 -->
    <_>
      <maxWeakCount>3</maxWeakCount>
      <stageThreshold>-1.5620311498641968e+000</stageThreshold>
      <weakClassifiers>
        <_>
          <internalNodes>
            1 2 543 36431 3 4 134 63479 5 6 255 22007 0 -1 428 45055 -2
            -3 493 20207 -4 -5 99 55261 -6 -7 141 20561</internalNodes>
          <leafValues>
            -9.5721924304962158e-001 1.1764705926179886e-001
            -6.9668245315551758e-001 7.1875000000000000e-001
            -9.8076921701431274e-001 7.1428573131561279e-001
            -4.0000000596046448e-001 8.9886480569839478e-001</leafValues></_>
        <_>
          <internalNodes>
            1 2 509 36687 3 4 8 46069 5 6 197 21845 0 -1 448 57343 -2 -3
            198 13311 -4 -5 79 56277 -6 -7 525 16469</internalNodes>
          <leafValues>
            -9.4012802839279175e-001 -2.7338966727256775e-001
            -8.1027841567993164e-001 5.2779364585876465e-001
            -9.6452808380126953e-001 4.6913439035415649e-001
            -8.2924896478652954e-001 8.4270304441452026e-001</leafValues></_>
        <_>
          <internalNodes>
            1 2 682 36783 3 4 180 47061 5 6 163 21365 0 -1 571 44975 -2
            -3 302 2574 -4 -5 578 39775 -6 -7 452 16541</internalNodes>
          <leafValues>
            -8.8864147663116455e-001 6.0176298022270203e-002
            -8.5427105426788330e-001 4.7422805428504944e-001
            -8.2736378908157349e-001 7.5988841056823730e-001
            -4.6827977895736694e-001 8.7475287914276123e-001</leafValues></_></weakClassifiers></_>
    <!-- stage 1 -->
    <_>
      <maxWeakCount>3</maxWeakCount>
      <stageThreshold>-1.8513967990875244e+000</stageThreshold>
      <weakClassifiers>
        <_>
          <internalNodes>
            1 2 526 52991 3 4 15 30583 5 6 11 30709 0 -1 521 65279 -2 -3
            552 36813 -4 -5 47 65278 -6 -7 446 21885</internalNodes>
          <leafValues>
            -9.1500806808471680e-001 7.1428574621677399e-002
            -7.3529410362243652e-001 1.7770035564899445e-001
            -7.7156174182891846e-001 6.9767445325851440e-002
            -6.4948451519012451e-001 8.1508517265319824e-001</leafValues></_>
        <_>
          <internalNodes>
            1 2 317 22015 3 4 295 65023 5 6 524 24063 0 -1 410 48999 -2
            -3 399 43780 -4 -5 599 61421 -6 -7 298 21877</internalNodes>
          <leafValues>
            -9.1135364770889282e-001 -1.3501808047294617e-001
            -8.4069132804870605e-001 8.2570070028305054e-001
            -8.2556253671646118e-001 1.0933616012334824e-001
            -7.4218165874481201e-001 5.5301725864410400e-001</leafValues></_>
        <_>
          <internalNodes>
            1 2 672 3823 3 4 511 61295 5 6 155 30037 0 -1 471 52479 -2
            -3 451 21757 -4 -5 634 5119 -6 -7 427 36616</internalNodes>
          <leafValues>
            -9.0119886398315430e-001 -2.9054015874862671e-001
            -9.5269680023193359e-001 3.8890880346298218e-001
            -9.7922056913375854e-001 -7.9631567001342773e-002
            -3.5234089940786362e-002 7.7125227451324463e-001</leafValues></_></weakClassifiers></_>
    <!-- stage 2 -->
    <_>
      <maxWeakCount>4</maxWeakCount>
      <stageThreshold>-1.5863867998123169e+000</stageThreshold>
      <weakClassifiers>
        <_>
          <internalNodes>
            1 2 10 30709 3 4 162 63477 5 6 465 44975 0 -1 68 65533 -2 -3
            402 44652 -4 -5 72 61134 -6 -7 384 20701</internalNodes>
          <leafValues>
            -8.7211179733276367e-001 3.5714286565780640e-001
            -6.8904596567153931e-001 3.8650307059288025e-001
            -6.1213433742523193e-001 3.1531530618667603e-001
            -7.0270270109176636e-001 7.8038066625595093e-001</leafValues></_>
        <_>
          <internalNodes>
            1 2 357 44684 3 4 16 63479 5 6 383 22013 0 -1 240 62325 -2
            -3 646 36395 -4 -5 69 62845 -6 -7 259 20725</internalNodes>
          <leafValues>
            -8.4896779060363770e-001 -3.0376031994819641e-001
            -5.6990772485733032e-001 3.4772157669067383e-001
            -8.3726346492767334e-001 5.0867602229118347e-002
            -7.1643477678298950e-001 7.5724601745605469e-001</leafValues></_>
        <_>
          <internalNodes>
            1 2 443 22015 3 4 56 48638 5 6 132 43538 0 -1 287 65343 -2
            -3 549 36399 -4 -5 352 59914 -6 -7 658 2862</internalNodes>
          <leafValues>
            -9.1904151439666748e-001 3.3486002683639526e-001
            -8.0456596612930298e-001 4.7596439719200134e-001
            -4.1528174281120300e-001 3.5773783922195435e-001
            -8.4060692787170410e-001 7.6873850822448730e-001</leafValues></_>
        <_>
          <internalNodes>
            1 2 257 30205 3 4 515 61295 5 6 609 17919 0 -1 554 65279 -2
            -3 497 20701 -4 -5 507 48767 -6 -7 650 3754</internalNodes>
          <leafValues>
            -8.5936856269836426e-001 5.0831419229507446e-001
            -9.2591434717178345e-001 3.0446490645408630e-001
            -7.6825249195098877e-001 7.5517421960830688e-001
            -6.9841241836547852e-001 5.0832980871200562e-001</leafValues></_></weakClassifiers></_>
    <!-- stage 3 -->
    <_>
      <maxWeakCount>4</maxWeakCount>
      <stageThreshold>-1.7042096853256226e+000</stageThreshold>
      <weakClassifiers>
        <_>
          <internalNodes>
            1 2 407 44847 3 4 430 44847 5 6 169 30549 0 -1 512 43951 -2
            -3 138 13269 -4 -5 178 63413 -6 -7 417 23805</internalNodes>
          <leafValues>
            -8.5191488265991211e-001 -1.4615385234355927e-001
            -7.6666665077209473e-001 4.1704034805297852e-001
            -7.5910365581512451e-001 3.4426230192184448e-001
            -4.3801653385162354e-001 7.8494626283645630e-001</leafValues></_>
        <_>
          <internalNodes>
            1 2 140 63351 3 4 669 60335 5 6 398 35328 0 -1 361 60162 -2
            -3 154 13141 -4 -5 688 35837 -6 -7 379 20831</internalNodes>
          <leafValues>
            -8.2682222127914429e-001 -2.7785286307334900e-001
            -5.6390237808227539e-001 4.7926935553550720e-001
            -5.7720506191253662e-001 3.7559330463409424e-001
            -4.0580022335052490e-001 7.2252738475799561e-001</leafValues></_>
        <_>
          <internalNodes>
            1 2 602 48640 3 4 517 54986 5 6 577 16599 0 -1 637 47989 -2
            -3 580 23295 -4 -5 315 47935 -6 -7 597 2796</internalNodes>
          <leafValues>
            -7.1482115983963013e-001 3.7201735377311707e-001
            -5.1082092523574829e-001 2.5580990314483643e-001
            -8.6696374416351318e-001 8.3158147335052490e-001
            -8.6100858449935913e-001 6.7458528280258179e-001</leafValues></_>
        <_>
          <internalNodes>
            1 2 391 48648 3 4 485 44576 5 6 449 4445 0 -1 304 44027 -2
            -3 490 22015 -4 -5 546 65413 -6 -7 293 20981</internalNodes>
          <leafValues>
            -6.7288863658905029e-001 4.3074545264244080e-001
            -7.1221470832824707e-001 3.6303624510765076e-001
            -8.3025187253952026e-001 4.9655494093894958e-001
            -5.8296531438827515e-001 7.2827607393264771e-001</leafValues></_></weakClassifiers></_>
    <!-- stage 4 -->
    <_>
      <maxWeakCount>4</maxWeakCount>
      <stageThreshold>-1.6154472827911377e+000</stageThreshold>
      <weakClassifiers>
        <_>
          <internalNodes>
            1 2 190 30581 3 4 536 65295 5 6 367 43951 0 -1 535 65503 -2
            -3 332 61847 -4 -5 88 47632 -6 -7 226 29149</internalNodes>
          <leafValues>
            -8.6898952722549438e-001 1. -6.9668245315551758e-001
            4.0350878238677979e-001 -6.0280376672744751e-001
            1.7985612154006958e-001 -4.9532711505889893e-001
            5.8288770914077759e-001</leafValues></_>
        <_>
          <internalNodes>
            1 2 139 30547 3 4 201 63319 5 6 557 23775 0 -1 168 65533 -2
            -3 38 39364 -4 -5 272 65166 -6 -7 395 43656</internalNodes>
          <leafValues>
            -8.7636178731918335e-001 3.6930036544799805e-001
            -9.5952504873275757e-001 2.7801284193992615e-001
            -7.5856196880340576e-001 -6.7566329380497336e-004
            -9.8652206361293793e-002 5.4428082704544067e-001</leafValues></_>
        <_>
          <internalNodes>
            1 2 418 21727 3 4 275 65381 5 6 675 3791 0 -1 265 64351 -2
            -3 66 55676 -4 -5 204 63325 -6 -7 171 30224</internalNodes>
          <leafValues>
            -9.4663906097412109e-001 4.8761653900146484e-001
            -8.4665417671203613e-001 5.2130472660064697e-001
            -7.9152709245681763e-001 -3.7348445504903793e-002
            -3.8173836469650269e-001 4.0757727622985840e-001</leafValues></_>
        <_>
          <internalNodes>
            1 2 681 36526 3 4 373 47931 5 6 590 20853 0 -1 481 57343 -2
            -3 124 22804 -4 -5 223 63487 -6 -7 338 21725</internalNodes>
          <leafValues>
            -7.3800021409988403e-001 -1.9689176697283983e-003 -1.
            9.1919636726379395e-001 -6.0587871074676514e-001
            3.4627336263656616e-001 -6.5133565664291382e-001
            4.5054525136947632e-001</leafValues></_></weakClassifiers></_>
    <!-- stage 5 -->
    <_>
      <maxWeakCount>5</maxWeakCount>
      <stageThreshold>-1.9526054859161377e+000</stageThreshold>
      <weakClassifiers>
        <_>
          <internalNodes>
            1 2 501 65518 3 4 43 64991 5 6 496 22015 0 -1 87 43034 -2 -3
            1 9003 -4 -5 328 65459 -6 -7 354 43520</internalNodes>
          <leafValues>
            -8.0562657117843628e-001 -4.2183622717857361e-001
            -4.4047617912292480e-001 6.6233766078948975e-001
            -7.9636365175247192e-001 1.9402985274791718e-001
            -2.6168224215507507e-001 6.6050422191619873e-001</leafValues></_>
        <_>
          <internalNodes>
            1 2 640 44991 3 4 690 64698 5 6 222 20981 0 -1 559 22719 -2
            -3 685 2895 -4 -5 136 49046 -6 -7 492 21630</internalNodes>
          <leafValues>
            -8.8038295507431030e-001 -3.5065522789955139e-001
            -5.5854386091232300e-001 3.1251430511474609e-001
            -9.6039569377899170e-001 4.8651468753814697e-001
            -6.6585952043533325e-001 6.0673475265502930e-001</leafValues></_>
        <_>
          <internalNodes>
            1 2 260 30685 3 4 551 61197 5 6 214 30323 0 -1 271 65263 -2
            -3 62 24056 -4 -5 231 59937 -6 -7 462 36746</internalNodes>
          <leafValues>
            -8.2608574628829956e-001 2.4441015720367432e-001
            -8.3643943071365356e-001 1.3937550783157349e-001
            -6.5436172485351563e-001 3.9583783596754074e-002
            -1.5254285931587219e-001 5.3280520439147949e-001</leafValues></_>
        <_>
          <internalNodes>
            1 2 100 30718 3 4 93 64236 5 6 456 52478 0 -1 268 64238 -2
            -3 96 29151 -4 -5 385 18687 -6 -7 65 21844</internalNodes>
          <leafValues>
            -7.9279631376266479e-001 -1.0224090516567230e-001
            -3.6473432183265686e-001 6.1849778890609741e-001
            -7.6007413864135742e-001 2.5206657126545906e-002
            -7.4260056018829346e-001 5.8272439241409302e-001</leafValues></_>
        <_>
          <internalNodes>
            1 2 289 43688 3 4 274 43532 5 6 331 22005 0 -1 52 60046 -2
            -3 294 22015 -4 -5 538 64333 -6 -7 249 20853</internalNodes>
          <leafValues>
            -6.2732565402984619e-001 4.0720019489526749e-002
            -7.7828395366668701e-001 3.3303004503250122e-001
            -6.8836730718612671e-001 5.8860027790069580e-001
            -2.8346532583236694e-001 7.7595853805541992e-001</leafValues></_></weakClassifiers></_>
    <!-- stage 6 -->
    <_>
      <maxWeakCount>5</maxWeakCount>
      <stageThreshold>-1.6117970943450928e+000</stageThreshold>
      <weakClassifiers>
        <_>
          <internalNodes>
            1 2 642 45039 3 4 183 63479 5 6 111 62453 0 -1 510 61423 -2
            -3 483 44686 -4 -5 423 47756 -6 -7 225 4605</internalNodes>
          <leafValues>
            -8.4900659322738647e-001 -4.7990542650222778e-001
            -6.1710792779922485e-001 1.7441859841346741e-001
            -6.3031423091888428e-001 1.3946586847305298e-001
            -5.2941179275512695e-001 6.2151396274566650e-001</leafValues></_>
        <_>
          <internalNodes>
            1 2 19 30679 3 4 50 47870 5 6 42 51272 0 -1 327 44847 -2 -3
            254 55221 -4 -5 480 55711 -6 -7 414 4543</internalNodes>
          <leafValues>
            -8.4644889831542969e-001 -3.2285705208778381e-001
            -5.3137928247451782e-001 3.2179671525955200e-001
            -5.6228590011596680e-001 1.8976764380931854e-001
            -4.5977807044982910e-001 5.0844585895538330e-001</leafValues></_>
        <_>
          <internalNodes>
            1 2 127 24349 3 4 207 65301 5 6 311 43776 0 -1 349 48653 -2
            -3 130 54492 -4 -5 617 42753 -6 -7 380 21752</internalNodes>
          <leafValues>
            -7.0456403493881226e-001 2.3705722764134407e-002
            -7.1560508012771606e-001 5.7999616861343384e-001
            -4.3475779891014099e-001 2.3074071109294891e-001
            -7.8077244758605957e-001 6.1101353168487549e-001</leafValues></_>
        <_>
          <internalNodes>
            1 2 491 21759 3 4 369 65522 5 6 291 22013 0 -1 677 49151 -2
            -3 482 65070 -4 -5 569 65199 -6 -7 353 47904</internalNodes>
          <leafValues>
            -9.4847041368484497e-001 5.3431606292724609e-001
            -8.2197177410125732e-001 4.3873211741447449e-001
            -7.0647895336151123e-001 4.3345627188682556e-001
            -2.1294089034199715e-002 5.4561960697174072e-001</leafValues></_>
        <_>
          <internalNodes>
            1 2 436 43552 3 4 651 44879 5 6 441 21629 0 -1 185 63477 -2
            -3 592 12690 -4 -5 89 57014 -6 -7 164 29699</internalNodes>
          <leafValues>
            -6.0707962512969971e-001 -5.0436407327651978e-002
            -4.4085779786109924e-001 4.0796551108360291e-001
            -7.2991549968719482e-001 2.0951943099498749e-001
            -5.8209407329559326e-001 7.7460038661956787e-001</leafValues></_></weakClassifiers></_>
    <!-- stage 7 -->
    <_>
      <maxWeakCount>5</maxWeakCount>
      <stageThreshold>-1.5719759464263916e+000</stageThreshold>
      <weakClassifiers>
        <_>
          <internalNodes>
            1 2 368 44975 3 4 323 45007 5 6 116 63477 0 -1 542 56031 -2
            -3 200 29911 -4 -5 251 43696 -6 -7 425 35400</internalNodes>
          <leafValues>
            -7.9289215803146362e-001 -4.5350500941276550e-001
            -7.1212118864059448e-001 1.8348623812198639e-001
            -5.5586206912994385e-001 2.3547400534152985e-001
            -2.7868852019309998e-001 7.1883291006088257e-001</leafValues></_>
        <_>
          <internalNodes>
            1 2 219 54613 3 4 458 55551 5 6 445 22013 0 -1 233 48877 -2
            -3 670 36716 -4 -5 316 46846 -6 -7 173 43658</internalNodes>
          <leafValues>
            -6.3471901416778564e-001 8.5712462663650513e-002
            -7.4012225866317749e-001 1.6114202141761780e-001
            -8.5251539945602417e-001 9.4952560961246490e-002
            1.6779914731159806e-003 6.3159322738647461e-001</leafValues></_>
        <_>
          <internalNodes>
            1 2 143 63351 3 4 586 24127 5 6 32 6860 0 -1 285 47655 -2 -3
            628 61952 -4 -5 309 64047 -6 -7 256 21845</internalNodes>
          <leafValues>
            -7.4789601564407349e-001 -4.9389835447072983e-002
            -4.0171471238136292e-001 2.1197593212127686e-001
            -5.4121571779251099e-001 7.1168148517608643e-001
            -9.5781624317169189e-001 5.2187627553939819e-001</leafValues></_>
        <_>
          <internalNodes>
            1 2 502 61130 3 4 329 44581 5 6 614 28693 0 -1 576 36857 -2
            -3 31 5501 -4 -5 520 20693 -6 -7 671 20142</internalNodes>
          <leafValues>
            -7.2311139106750488e-001 -1.6920699179172516e-001
            -5.3923738002777100e-001 4.3536424636840820e-001
            -6.3745856285095215e-001 9.5803678035736084e-002
            -6.4492499828338623e-001 5.7079166173934937e-001</leafValues></_>
        <_>
          <internalNodes>
            1 2 296 21823 3 4 700 65118 5 6 307 44748 0 -1 519 45047 -2
            -3 184 51971 -4 -5 582 24063 -6 -7 348 19174</internalNodes>
          <leafValues>
            -8.8898539543151855e-001 2.7670073509216309e-001
            -6.6945987939834595e-001 5.3554624319076538e-001
            -5.7237982749938965e-001 7.1654804050922394e-002
            -8.9739990234375000e-001 5.1663869619369507e-001</leafValues></_></weakClassifiers></_>
    <!-- stage 8 -->
    <_>
      <maxWeakCount>6</maxWeakCount>
      <stageThreshold>-1.7054795026779175e+000</stageThreshold>
      <weakClassifiers>
        <_>
          <internalNodes>
            1 2 122 65329 3 4 489 47888 5 6 467 44911 0 -1 250 43530 -2
            -3 411 20959 -4 -5 322 57071 -6 -7 167 20821</internalNodes>
          <leafValues>
            -7.5487178564071655e-001 -3.1171169877052307e-001
            -5.6957328319549561e-001 3.7356323003768921e-001
            -5.6739813089370728e-001 3.7500000000000000e-001
            -4.7619047760963440e-001 7.4705880880355835e-001</leafValues></_>
        <_>
          <internalNodes>
            1 2 641 45031 3 4 170 62293 5 6 593 29969 0 -1 694 60143 -2
            -3 409 43778 -4 -5 305 36588 -6 -7 109 21764</internalNodes>
          <leafValues>
            -7.1470195055007935e-001 -1.5692205727100372e-001
            -4.3194633722305298e-001 3.1842193007469177e-001
            -5.3628134727478027e-001 1.6752219200134277e-001
            -5.3925019502639771e-001 5.4093664884567261e-001</leafValues></_>
        <_>
          <internalNodes>
            1 2 455 23743 3 4 498 65277 5 6 48 51384 0 -1 36 32476 -2 -3
            647 16491 -4 -5 396 47886 -6 -7 13 30549</internalNodes>
          <leafValues>
            -8.5386818647384644e-001 -2.8733012080192566e-001 -1.
            9.4197440147399902e-001 -4.0253770351409912e-001
            2.7408081293106079e-001 -1.3843999803066254e-001
            6.2136584520339966e-001</leafValues></_>
        <_>
          <internalNodes>
            1 2 381 21757 3 4 78 65501 5 6 397 43912 0 -1 189 64317 -2
            -3 137 49556 -4 -5 387 60330 -6 -7 660 4015</internalNodes>
          <leafValues>
            -7.7077895402908325e-001 1.8057610094547272e-001 -1.
            9.1221362352371216e-001 -3.2164004445075989e-001
            4.7008866071701050e-001 -3.2073697447776794e-001
            4.8936608433723450e-001</leafValues></_>
        <_>
          <internalNodes>
            1 2 633 5307 3 4 80 55260 5 6 128 20572 0 -1 478 65149 -2 -3
            282 27943 -4 -5 102 64247 -6 -7 607 44704</internalNodes>
          <leafValues>
            -8.5770857334136963e-001 5.9683424234390259e-001
            -7.5259077548980713e-001 2.5560334324836731e-001
            -7.4621033668518066e-001 2.4655255675315857e-001
            -3.4077547490596771e-002 4.5486310124397278e-001</leafValues></_>
        <_>
          <internalNodes>
            1 2 135 63349 3 4 371 12044 5 6 415 20958 0 -1 627 63487 -2
            -3 659 53227 -4 -5 61 64957 -6 -7 620 3823</internalNodes>
          <leafValues>
            -8.0408531427383423e-001 1.2072478979825974e-001
            -4.1598734259605408e-001 1.8789532780647278e-001
            -7.5820285081863403e-001 8.1567490100860596e-001
            -2.4844941496849060e-001 4.8646768927574158e-001</leafValues></_></weakClassifiers></_>
    <!-- stage 9 -->
    <_>
      <maxWeakCount>7</maxWeakCount>
      <stageThreshold>-1.6510763168334961e+000</stageThreshold>
      <weakClassifiers>
        <_>
          <internalNodes>
            1 2 392 64078 3 4 567 65365 5 6 104 30581 0 -1 39 44703 -2
            -3 565 5358 -4 -5 508 48925 -6 -7 212 14198</internalNodes>
          <leafValues>
            -6.6539049148559570e-001 1.8032786250114441e-001
            -6.4705884456634521e-001 4.4444444775581360e-001
            -5.7414448261260986e-001 7.5000000000000000e-001
            -5.5555558204650879e-001 5.0522649288177490e-001</leafValues></_>
        <_>
          <internalNodes>
            1 2 156 30581 3 4 594 64259 5 6 359 43534 0 -1 522 53499 -2
            -3 70 38796 -4 -5 698 62630 -6 -7 377 20703</internalNodes>
          <leafValues>
            -8.5929375886917114e-001 -4.2336818575859070e-001
            -7.2619384527206421e-001 3.1901687383651733e-001
            -5.1256108283996582e-001 1.0395259410142899e-001
            -3.3325964212417603e-001 5.7348465919494629e-001</leafValues></_>
        <_>
          <internalNodes>
            1 2 656 36607 3 4 604 50431 5 6 476 5625 0 -1 2 48607 -2 -3
            110 63447 -4 -5 575 61415 -6 -7 193 29008</internalNodes>
          <leafValues>
            -6.4899373054504395e-001 1.3864447176456451e-001
            -3.4683826565742493e-001 3.3354899287223816e-001
            -9.3813180923461914e-001 -1.0598751902580261e-001
            -3.6126536130905151e-001 4.2188683152198792e-001</leafValues></_>
        <_>
          <internalNodes>
            1 2 474 56062 3 4 611 191 5 6 692 59182 0 -1 279 64415 -2 -3
            484 32269 -4 -5 191 41556 -6 -7 63 21884</internalNodes>
          <leafValues>
            -8.5869032144546509e-001 6.4167720079421997e-001
            -4.0955576300621033e-001 1.3554172217845917e-001
            -5.4144144058227539e-001 1.6208149492740631e-001
            -5.5751162767410278e-001 5.3458285331726074e-001</leafValues></_>
        <_>
          <internalNodes>
            1 2 433 65514 3 4 252 47650 5 6 292 17717 0 -1 469 57633 -2
            -3 439 1399 -4 -5 76 62303 -6 -7 623 3945</internalNodes>
          <leafValues>
            -5.3291571140289307e-001 1.8915442749857903e-002
            -4.2211523652076721e-001 5.3440636396408081e-001
            -9.1745829582214355e-001 8.9294546842575073e-001
            -2.2178700566291809e-001 5.8710896968841553e-001</leafValues></_>
        <_>
          <internalNodes>
            1 2 60 40190 3 4 314 42852 5 6 258 17781 0 -1 239 61390 -2
            -3 26 20955 -4 -5 704 47519 -6 -7 21 30244</internalNodes>
          <leafValues>
            -6.5935689210891724e-001 1.0890915989875793e-001
            -5.2647364139556885e-001 2.4000614881515503e-001
            -8.9689046144485474e-001 8.8517022132873535e-001
            -3.0326336622238159e-001 4.5741537213325500e-001</leafValues></_>
        <_>
          <internalNodes>
            1 2 119 30515 3 4 459 56959 5 6 46 61322 0 -1 177 60013 -2
            -3 27 14365 -4 -5 4 30109 -6 -7 115 20916</internalNodes>
          <leafValues>
            -8.6193799972534180e-001 1.4277650415897369e-001
            -4.7481498122215271e-001 5.8402043581008911e-001
            -6.0805982351303101e-001 5.5993694812059402e-002
            -8.5486024618148804e-001 4.9498063325881958e-001</leafValues></_></weakClassifiers></_>
    <!-- stage 10 -->
    <_>
      <maxWeakCount>7</maxWeakCount>
      <stageThreshold>-1.5306529998779297e+000</stageThreshold>
      <weakClassifiers>
        <_>
          <internalNodes>
            1 2 347 47790 3 4 400 48942 5 6 550 44939 0 -1 73 65023 -2
            -3 403 20735 -4 -5 248 65137 -6 -7 613 13745</internalNodes>
          <leafValues>
            -7.4003106355667114e-001 -1.7647059261798859e-001
            -5.8215963840484619e-001 1.7981073260307312e-001
            -6.3028955459594727e-001 3.7500001490116119e-002
            -2.6501765847206116e-001 5.8823531866073608e-001</leafValues></_>
        <_>
          <internalNodes>
            1 2 450 21983 3 4 266 44749 5 6 435 47888 0 -1 564 65499 -2
            -3 209 64005 -4 -5 217 44970 -6 -7 334 22015</internalNodes>
          <leafValues>
            -8.6545521020889282e-001 5.7047241926193237e-001
            -5.9019815921783447e-001 6.0535168647766113e-001
            -3.0664533376693726e-001 2.4350884556770325e-001
            -2.0135637372732162e-002 7.6551455259323120e-001</leafValues></_>
        <_>
          <internalNodes>
            1 2 144 63351 3 4 308 43822 5 6 674 3823 0 -1 319 56318 -2
            -3 105 21589 -4 -5 230 47047 -6 -7 572 52162</internalNodes>
          <leafValues>
            -6.2754452228546143e-001 -1.2485233694314957e-001
            -6.4718252420425415e-001 3.3897432684898376e-001
            -8.1664299964904785e-001 2.8725540637969971e-001
            -1.0403209179639816e-001 5.5715125799179077e-001</leafValues></_>
        <_>
          <internalNodes>
            1 2 561 23743 3 4 49 62704 5 6 224 30719 0 -1 703 65247 -2
            -3 131 32637 -4 -5 702 61914 -6 -7 221 34840</internalNodes>
          <leafValues>
            -8.2998400926589966e-001 7.4673956632614136e-001
            -5.9033834934234619e-001 3.2441085577011108e-001
            -5.3364592790603638e-001 1.0753779858350754e-001
            -1.1540691368281841e-002 5.2152764797210693e-001</leafValues></_>
        <_>
          <internalNodes>
            1 2 680 43662 3 4 75 61180 5 6 558 20734 0 -1 333 30709 -2
            -3 632 22879 -4 -5 300 62943 -6 -7 560 19134</internalNodes>
          <leafValues>
            -7.1824115514755249e-001 -1.9939272105693817e-001
            -5.6438279151916504e-001 3.0527946352958679e-001
            -8.4261536598205566e-001 1.6893897950649261e-001
            -4.1604584455490112e-001 4.3384054303169250e-001</leafValues></_>
        <_>
          <internalNodes>
            1 2 7 56078 3 4 624 3967 5 6 117 14167 0 -1 57 65406 -2 -3
            284 42533 -4 -5 533 64494 -6 -7 77 7620</internalNodes>
          <leafValues>
            -7.1684581041336060e-001 4.6012732386589050e-001
            -4.1778475046157837e-001 2.5403171777725220e-001
            -7.0938384532928467e-001 1.0632112622261047e-001
            -3.5853245854377747e-001 4.0823847055435181e-001</leafValues></_>
        <_>
          <internalNodes>
            1 2 290 22005 3 4 234 43535 5 6 326 44802 0 -1 118 65529 -2
            -3 386 62724 -4 -5 618 47925 -6 -7 313 1711</internalNodes>
          <leafValues>
            -8.7567752599716187e-001 8.0962574481964111e-001
            -8.2550412416458130e-001 7.0639306306838989e-001
            -2.8645658493041992e-001 5.4923564195632935e-001
            -4.3104028701782227e-001 4.1622069478034973e-001</leafValues></_></weakClassifiers></_>
    <!-- stage 11 -->
    <_>
      <maxWeakCount>7</maxWeakCount>
      <stageThreshold>-1.6707940101623535e+000</stageThreshold>
      <weakClassifiers>
        <_>
          <internalNodes>
            1 2 615 63253 3 4 94 54645 5 6 486 61327 0 -1 568 64227 -2
            -3 83 47770 -4 -5 625 56783 -6 -7 629 3764</internalNodes>
          <leafValues>
            -7.8120183944702148e-001 -4.3298968672752380e-001
            -5.0436300039291382e-001 7.0247933268547058e-002
            -6.5333330631256104e-001 -5.1546391099691391e-002
            -8.9999997615814209e-001 5.7671958208084106e-001</leafValues></_>
        <_>
          <internalNodes>
            1 2 600 44544 3 4 374 48914 5 6 605 255 0 -1 217 44712 -2 -3
            440 1527 -4 -5 356 60064 -6 -7 336 21757</internalNodes>
          <leafValues>
            -5.6083953380584717e-001 -4.0555514395236969e-002
            -8.5268449783325195e-001 4.0918928384780884e-001
            -7.1490204334259033e-001 4.3204696848988533e-003
            -2.5568410754203796e-001 5.6297641992568970e-001</leafValues></_>
        <_>
          <internalNodes>
            1 2 157 30549 3 4 429 43887 5 6 573 52194 0 -1 264 64181 -2
            -3 370 13138 -4 -5 556 57087 -6 -7 562 21727</internalNodes>
          <leafValues>
            -6.8204003572463989e-001 1.0564400255680084e-001
            -6.8298131227493286e-001 2.8875488042831421e-001
            -4.5587977766990662e-001 2.3316058516502380e-001
            -2.2180114686489105e-001 4.5761194825172424e-001</leafValues></_>
        <_>
          <internalNodes>
            1 2 461 47784 3 4 276 34316 5 6 477 20703 0 -1 648 43829 -2
            -3 691 29714 -4 -5 45 64760 -6 -7 17 30676</internalNodes>
          <leafValues>
            -6.6485434770584106e-001 -6.7630395293235779e-002
            -5.5459147691726685e-001 1.5142193436622620e-001
            -7.4787610769271851e-001 1.3260583579540253e-001
            -2.8611159324645996e-001 5.6867206096649170e-001</leafValues></_>
        <_>
          <internalNodes>
            1 2 318 21839 3 4 364 57263 5 6 306 35848 0 -1 236 65359 -2
            -3 335 50156 -4 -5 531 21980 -6 -7 148 30065</internalNodes>
          <leafValues>
            -7.6035940647125244e-001 3.7458407878875732e-001
            -5.6709998846054077e-001 5.0220400094985962e-001
            -7.7338165044784546e-001 -4.6024098992347717e-002
            -1.0206921398639679e-001 4.5613959431648254e-001</leafValues></_>
        <_>
          <internalNodes>
            1 2 505 65162 3 4 283 28367 5 6 523 17533 0 -1 37 24543 -2
            -3 340 21759 -4 -5 351 65402 -6 -7 687 3839</internalNodes>
          <leafValues>
            -7.5134748220443726e-001 -2.1709561347961426e-001
            -7.7395534515380859e-001 1.7259751260280609e-001
            -7.7481138706207275e-001 2.3799726366996765e-001
            6.0931257903575897e-002 6.1124110221862793e-001</leafValues></_>
        <_>
          <internalNodes>
            1 2 701 47394 3 4 145 65345 5 6 303 19150 0 -1 346 44876 -2
            -3 166 30021 -4 -5 668 47799 -6 -7 447 20719</internalNodes>
          <leafValues>
            -5.9204423427581787e-001 -7.8241899609565735e-002
            -7.0732045173645020e-001 4.3999913334846497e-001
            -7.9388880729675293e-001 7.0513683557510376e-001
            -4.8998537659645081e-001 3.8861972093582153e-001</leafValues></_></weakClassifiers></_>
    <!-- stage 12 -->
    <_>
      <maxWeakCount>6</maxWeakCount>
      <stageThreshold>-1.5578175783157349e+000</stageThreshold>
      <weakClassifiers>
        <_>
          <internalNodes>
            1 2 424 47882 3 4 389 48782 5 6 358 21623 0 -1 253 48895 -2
            -3 6 29207 -4 -5 598 47974 -6 -7 444 54525</internalNodes>
          <leafValues>
            -7.1592688560485840e-001 2.7272728085517883e-001
            -6.2500000000000000e-001 2.0183485746383667e-001
            -7.4678111076354980e-001 -2.1637426316738129e-001
            -2.8761062026023865e-001 4.3214285373687744e-001</leafValues></_>
        <_>
          <internalNodes>
            1 2 547 61953 3 4 341 21759 5 6 585 4413 0 -1 40 47636 -2 -3
            350 44550 -4 -5 195 45814 -6 -7 695 3055</internalNodes>
          <leafValues>
            -8.9047700166702271e-001 -2.3978580534458160e-001
            -4.1083464026451111e-001 1.2382689118385315e-001
            -9.3286246061325073e-001 -1.6110794618725777e-002
            -2.3256845772266388e-001 4.7446632385253906e-001</leafValues></_>
        <_>
          <internalNodes>
            1 2 601 43552 3 4 58 60348 5 6 626 17535 0 -1 363 61149 -2
            -3 676 3005 -4 -5 216 48983 -6 -7 442 30199</internalNodes>
          <leafValues>
            -5.5181097984313965e-001 5.2783772349357605e-002
            -2.7132412791252136e-001 4.0664145350456238e-001
            -4.2382913827896118e-001 4.9395897984504700e-001
            -6.2212873250246048e-002 6.4483183622360229e-001</leafValues></_>
        <_>
          <internalNodes>
            1 2 153 21980 3 4 113 62446 5 6 213 62293 0 -1 631 64927 -2
            -3 342 10271 -4 -5 622 43903 -6 -7 120 30581</internalNodes>
          <leafValues>
            -8.0198222398757935e-001 1.2416683137416840e-001
            -7.2347003221511841e-001 5.5153763294219971e-001
            -2.8095015883445740e-001 3.2360649108886719e-001
            -2.8546360135078430e-001 4.8750841617584229e-001</leafValues></_>
        <_>
          <internalNodes>
            1 2 51 51304 3 4 218 43698 5 6 12 30708 0 -1 150 63999 -2 -3
            220 22525 -4 -5 238 61406 -6 -7 666 35436</internalNodes>
          <leafValues>
            -5.1177018880844116e-001 5.3696072101593018e-001
            -2.7907776832580566e-001 5.3931331634521484e-001
            -6.4084213972091675e-001 3.9897602796554565e-001
            -1.9882720708847046e-001 4.4004079699516296e-001</leafValues></_>
        <_>
          <internalNodes>
            1 2 504 53194 3 4 705 29398 5 6 506 12545 0 -1 360 49149 -2
            -3 665 10023 -4 -5 664 46559 -6 -7 297 21693</internalNodes>
          <leafValues>
            -7.7676767110824585e-001 6.8217724561691284e-001
            -4.1921389102935791e-001 3.4117299318313599e-001
            -3.3213341236114502e-001 3.9832171797752380e-001
            -3.3793208003044128e-001 4.4079685211181641e-001</leafValues></_></weakClassifiers></_>
    <!-- stage 13 -->
    <_>
      <maxWeakCount>6</maxWeakCount>
      <stageThreshold>-1.4891241788864136e+000</stageThreshold>
      <weakClassifiers>
        <_>
          <internalNodes>
            1 2 146 65361 3 4 372 43554 5 6 267 3692 0 -1 158 43566 -2
            -3 376 1143 -4 -5 460 57052 -6 -7 544 19647</internalNodes>
          <leafValues>
            -7.3151028156280518e-001 -3.7171053886413574e-001
            -6.0481101274490356e-001 1.8222221732139587e-001
            -7.6724135875701904e-001 -1.1258278042078018e-001
            -5.7264959812164307e-001 3.9203354716300964e-001</leafValues></_>
        <_>
          <internalNodes>
            1 2 199 29565 3 4 683 43681 5 6 14 30647 0 -1 82 48382 -2 -3
            591 23295 -4 -5 706 13584 -6 -7 662 2697</internalNodes>
          <leafValues>
            -7.8275519609451294e-001 -2.1101225912570953e-001
            -5.8886313438415527e-001 2.0238405466079712e-001
            -7.5021660327911377e-001 -1.2761020660400391e-001
            -5.3341156244277954e-001 3.3860260248184204e-001</leafValues></_>
        <_>
          <internalNodes>
            1 2 619 61188 3 4 527 24062 5 6 612 21981 0 -1 468 64319 -2
            -3 534 47083 -4 -5 461 44586 -6 -7 165 30320</internalNodes>
          <leafValues>
            -9.1838228702545166e-001 8.4285342693328857e-001
            -3.4706249833106995e-001 3.3887952566146851e-001
            -5.1132696866989136e-001 1.1886873841285706e-001
            -4.3487983942031860e-001 4.8697382211685181e-001</leafValues></_>
        <_>
          <internalNodes>
            1 2 34 30109 3 4 74 52574 5 6 28 52266 0 -1 181 59383 -2 -3
            242 13943 -4 -5 325 48812 -6 -7 584 2750</internalNodes>
          <leafValues>
            -7.3923790454864502e-001 -1.9610001146793365e-001
            -4.4367861747741699e-001 2.2387829422950745e-001
            -8.1467878818511963e-001 1.1778929829597473e-001
            -3.1256675720214844e-001 4.1829487681388855e-001</leafValues></_>
        <_>
          <internalNodes>
            1 2 232 44719 3 4 494 20601 5 6 121 13555 0 -1 208 65429 -2
            -3 412 20831 -4 -5 85 41636 -6 -7 227 5462</internalNodes>
          <leafValues>
            -8.2733458280563354e-001 -5.5939438752830029e-003
            -5.6049460172653198e-001 6.3159108161926270e-002
            -7.5244849920272827e-001 6.5036910772323608e-001
            -5.5779677629470825e-001 6.2817156314849854e-001</leafValues></_>
        <_>
          <internalNodes>
            1 2 44 56412 3 4 553 50431 5 6 545 2299 0 -1 362 64176 -2 -3
            686 2910 -4 -5 375 45040 -6 -7 537 61248</internalNodes>
          <leafValues>
            -6.7878711223602295e-001 -1.4567141234874725e-001
            -6.0667270421981812e-001 1.9211761653423309e-001
            -6.3586026430130005e-001 3.0610486865043640e-001
            1.3167224824428558e-002 5.7400578260421753e-001</leafValues></_></weakClassifiers></_>
    <!-- stage 14 -->
    <_>
      <maxWeakCount>8</maxWeakCount>
      <stageThreshold>-1.5392349958419800e+000</stageThreshold>
      <weakClassifiers>
        <_>
          <internalNodes>
            1 2 408 44719 3 4 405 43791 5 6 188 30549 0 -1 365 43967 -2
            -3 186 63379 -4 -5 9 63421 -6 -7 378 54526</internalNodes>
          <leafValues>
            -7.3542892932891846e-001 -2.3255813866853714e-002
            -4.9773755669593811e-001 2.6797387003898621e-001
            -6.4148527383804321e-001 -1.1936339735984802e-001
            -3.1964808702468872e-001 4.0926641225814819e-001</leafValues></_>
        <_>
          <internalNodes>
            1 2 645 63024 3 4 390 48908 5 6 644 16639 0 -1 518 48800 -2
            -3 655 51865 -4 -5 654 64850 -6 -7 579 20479</internalNodes>
          <leafValues>
            -6.4870089292526245e-001 -9.4369530677795410e-002
            -4.1569334268569946e-001 2.2918920218944550e-001
            -7.8218466043472290e-001 -1.0446099936962128e-001
            -3.0684968829154968e-001 4.1344919800758362e-001</leafValues></_>
        <_>
          <internalNodes>
            1 2 106 23500 3 4 324 65423 5 6 202 30517 0 -1 91 65527 -2
            -3 149 53700 -4 -5 23 62776 -6 -7 453 21581</internalNodes>
          <leafValues>
            -6.8922460079193115e-001 9.6439704298973083e-002
            -7.2426372766494751e-001 7.1827334165573120e-001
            -7.2674542665481567e-001 -9.6292041242122650e-002
            -5.4467397928237915e-001 2.9045766592025757e-001</leafValues></_>
        <_>
          <internalNodes>
            1 2 388 62120 3 4 215 31573 5 6 330 47664 0 -1 678 6971 -2
            -3 426 60174 -4 -5 513 8181 -6 -7 610 17567</internalNodes>
          <leafValues>
            -6.2991839647293091e-001 -4.9107197672128677e-002
            -2.8457042574882507e-001 3.8838019967079163e-001
            -4.0318587422370911e-001 2.5020381808280945e-001
            -4.9094295501708984e-001 5.0083273649215698e-001</leafValues></_>
        <_>
          <internalNodes>
            1 2 693 42762 3 4 621 33536 5 6 663 3134 0 -1 103 60055 -2
            -3 203 50247 -4 -5 583 52667 -6 -7 126 16732</internalNodes>
          <leafValues>
            -7.3604720830917358e-001 7.1505200862884521e-001
            -4.1571277379989624e-001 1.1761580407619476e-001
            -9.5143306255340576e-001 -6.2870286405086517e-002
            -5.3526473045349121e-001 3.5332864522933960e-001</leafValues></_>
        <_>
          <internalNodes>
            1 2 339 21629 3 4 196 57333 5 6 684 18799 0 -1 114 65189 -2
            -3 101 33744 -4 -5 95 55063 -6 -7 175 35336</internalNodes>
          <leafValues>
            -7.8121584653854370e-001 3.5747948288917542e-001
            -7.0110869407653809e-001 6.6754812002182007e-001
            -6.4344203472137451e-001 3.4076381474733353e-002
            -8.6075790226459503e-002 3.6412674188613892e-001</leafValues></_>
        <_>
          <internalNodes>
            1 2 194 21717 3 4 71 65278 5 6 454 24250 0 -1 649 47677 -2
            -3 286 8807 -4 -5 206 42955 -6 -7 35 32768</internalNodes>
          <leafValues>
            -7.4939161539077759e-001 4.1882106661796570e-001 -1.
            6.7077559232711792e-001 -6.3596618175506592e-001
            7.0750929415225983e-002 -8.8981169462203979e-001
            2.2660773992538452e-001</leafValues></_>
        <_>
          <internalNodes>
            1 2 310 44970 3 4 541 23279 5 6 125 20821 0 -1 421 47711 -2
            -3 708 63922 -4 -5 237 36647 -6 -7 343 20707</internalNodes>
          <leafValues>
            -5.7090926170349121e-001 6.1155849695205688e-001
            -1.9627417623996735e-001 5.6216055154800415e-001
            -8.4093773365020752e-001 -3.8631781935691833e-002
            -9.7085677087306976e-002 5.9950041770935059e-001</leafValues></_></weakClassifiers></_>
    <!-- stage 15 -->
    <_>
      <maxWeakCount>8</maxWeakCount>
      <stageThreshold>-1.4989566802978516e+000</stageThreshold>
      <weakClassifiers>
        <_>
          <internalNodes>
            1 2 566 63317 3 4 147 65393 5 6 570 61295 0 -1 90 56445 -2
            -3 320 7647 -4 -5 697 35567 -6 -7 301 51932</internalNodes>
          <leafValues>
            -6.9396764039993286e-001 -3.2916146516799927e-001
            -4.8148149251937866e-001 2.8979590535163879e-001
            -7.6237624883651733e-001 -1.2500000000000000e-001
            -1.6556291282176971e-001 7.2908365726470947e-001</leafValues></_>
        <_>
          <internalNodes>
            1 2 394 48874 3 4 588 22005 5 6 245 22355 0 -1 92 43548 -2
            -3 437 42560 -4 -5 261 54263 -6 -7 457 22783</internalNodes>
          <leafValues>
            -7.5190544128417969e-001 2.7683013677597046e-001
            -3.5155636072158813e-001 1.6787974536418915e-001
            -7.2573739290237427e-001 8.5002921521663666e-002
            -3.0178794264793396e-001 3.9208194613456726e-001</leafValues></_>
        <_>
          <internalNodes>
            1 2 709 48272 3 4 431 48731 5 6 473 20956 0 -1 616 65373 -2
            -3 0 528 -4 -5 241 48525 -6 -7 29 24398</internalNodes>
          <leafValues>
            -8.5864102840423584e-001 5.8246630430221558e-001 -1. 1.
            -7.2725617885589600e-001 2.0508599281311035e-001
            -2.7416995167732239e-001 2.1089458465576172e-001</leafValues></_>
        <_>
          <internalNodes>
            1 2 174 43528 3 4 176 49034 5 6 3 14133 0 -1 288 65287 -2 -3
            133 21684 -4 -5 337 36538 -6 -7 81 35880</internalNodes>
          <leafValues>
            -4.6726945042610168e-001 1.2550985813140869e-001
            -8.9303344488143921e-001 5.1739752292633057e-001
            -5.5039715766906738e-001 1.0257597267627716e-001
            4.0480555035173893e-003 6.2813568115234375e-001</leafValues></_>
        <_>
          <internalNodes>
            1 2 24 50254 3 4 211 64343 5 6 299 21581 0 -1 638 64341 -2
            -3 281 19148 -4 -5 321 46895 -6 -7 86 29908</internalNodes>
          <leafValues>
            -6.4526921510696411e-001 3.7296944856643677e-001
            -8.3466851711273193e-001 7.2347152233123779e-001
            -6.5930914878845215e-001 2.4589496850967407e-001
            -4.1008433699607849e-001 2.5471156835556030e-001</leafValues></_>
        <_>
          <internalNodes>
            1 2 273 44556 3 4 636 58149 5 6 539 36706 0 -1 192 28191 -2
            -3 699 7410 -4 -5 466 27311 -6 -7 661 19435</internalNodes>
          <leafValues>
            -6.9196486473083496e-001 -1.8378703296184540e-001
            -4.1450476646423340e-001 2.6906797289848328e-001
            -6.5893471240997314e-001 9.2579260468482971e-002
            -3.9559584856033325e-001 5.0809866189956665e-001</leafValues></_>
        <_>
          <internalNodes>
            1 2 59 63312 3 4 30 50527 5 6 416 21711 0 -1 653 36343 -2 -3
            479 19581 -4 -5 464 63983 -6 -7 33 1066</internalNodes>
          <leafValues>
            -7.8634023666381836e-001 -2.5013172626495361e-001
            -8.0743229389190674e-001 1.2608261406421661e-001
            -7.1173626184463501e-001 4.8292186856269836e-001
            -4.1431757807731628e-001 3.8115736842155457e-001</leafValues></_>
        <_>
          <internalNodes>
            1 2 419 56638 3 4 603 50239 5 6 463 9997 0 -1 555 55549 -2
            -3 563 24202 -4 -5 401 9932 -6 -7 161 21938</internalNodes>
          <leafValues>
            -5.9416812658309937e-001 3.6538679152727127e-002
            -5.7804280519485474e-001 1.4633521437644958e-001
            -6.6269189119338989e-001 6.1854876577854156e-002
            -5.5107319355010986e-001 4.7588661313056946e-001</leafValues></_></weakClassifiers></_>
    <!-- stage 16 -->
    <_>
      <maxWeakCount>7</maxWeakCount>
      <stageThreshold>-1.5872633457183838e+000</stageThreshold>
      <weakClassifiers>
        <_>
          <internalNodes>
            1 2 639 44965 3 4 247 65407 5 6 589 28925 0 -1 64 64861 -2
            -3 246 18686 -4 -5 344 64478 -6 -7 596 63232</internalNodes>
          <leafValues>
            -6.7013525962829590e-001 -1.8095238506793976e-001
            -6.6666668653488159e-001 8.9999997615814209e-001
            -6.0419094562530518e-001 1.6923077404499054e-001
            -3.6595743894577026e-001 3.5211268067359924e-001</leafValues></_>
        <_>
          <internalNodes>
            1 2 97 57205 3 4 689 44015 5 6 179 21884 0 -1 499 39720 -2
            -3 630 20543 -4 -5 54 34842 -6 -7 18 24887</internalNodes>
          <leafValues>
            -5.5431234836578369e-001 -1.2312308698892593e-001
            -3.7971591949462891e-001 3.8590362668037415e-001
            -8.3662885427474976e-001 5.8918941020965576e-001
            -2.0578463375568390e-001 5.2207255363464355e-001</leafValues></_>
        <_>
          <internalNodes>
            1 2 108 24028 3 4 422 47550 5 6 366 43538 0 -1 107 57337 -2
            -3 151 38789 -4 -5 643 3053 -6 -7 22 30516</internalNodes>
          <leafValues>
            -7.0262640714645386e-001 5.5158369243144989e-002
            -4.8143917322158813e-001 4.7330713272094727e-001
            -6.3881242275238037e-001 1.3118873350322247e-002
            -2.6168203353881836e-001 4.2171874642372131e-001</leafValues></_>
        <_>
          <internalNodes>
            1 2 470 50737 3 4 438 59253 5 6 475 7512 0 -1 41 55614 -2 -3
            5 34842 -4 -5 532 54039 -6 -7 277 41966</internalNodes>
          <leafValues>
            -5.0229108333587646e-001 -6.0163985937833786e-002
            -9.0012079477310181e-001 3.9266118407249451e-001
            -7.6107281446456909e-001 1.5597972273826599e-001
            4.8221603035926819e-002 5.4732906818389893e-001</leafValues></_>
        <_>
          <internalNodes>
            1 2 152 29333 3 4 393 53065 5 6 229 30205 0 -1 280 64349 -2
            -3 129 15838 -4 -5 67 64990 -6 -7 413 5629</internalNodes>
          <leafValues>
            -7.1027934551239014e-001 5.2848380804061890e-001
            -5.3702843189239502e-001 2.9824256896972656e-001
            -4.3904709815979004e-001 5.6316351890563965e-001
            -4.1720634698867798e-001 3.1153666973114014e-001</leafValues></_>
        <_>
          <internalNodes>
            1 2 25 61518 3 4 187 64405 5 6 696 63146 0 -1 244 12109 -2
            -3 420 18919 -4 -5 673 36815 -6 -7 574 3166</internalNodes>
          <leafValues>
            -7.6316136121749878e-001 -2.3305755853652954e-001
            -9.6286886930465698e-001 6.4201718568801880e-001
            -4.0644791722297668e-001 1.1281993985176086e-001
            -2.6637277007102966e-001 4.2545872926712036e-001</leafValues></_>
        <_>
          <internalNodes>
            1 2 355 43532 3 4 404 44551 5 6 123 21873 0 -1 270 47642 -2
            -3 210 22100 -4 -5 278 60121 -6 -7 235 31488</internalNodes>
          <leafValues>
            -5.8197402954101563e-001 7.0342183113098145e-002
            -6.8718409538269043e-001 3.2669225335121155e-001
            -5.8149898052215576e-001 4.3927550315856934e-001
            -7.7460810542106628e-002 4.8038271069526672e-001</leafValues></_></weakClassifiers></_>
    <!-- stage 17 -->
    <_>
      <maxWeakCount>7</maxWeakCount>
      <stageThreshold>-1.5797971487045288e+000</stageThreshold>
      <weakClassifiers>
        <_>
          <internalNodes>
            1 2 172 43692 3 4 98 46741 5 6 160 5239 0 -1 434 43583 -2 -3
            159 48780 -4 -5 547 64273 -6 -7 514 59785</internalNodes>
          <leafValues>
            -7.2435492277145386e-001 -3.6144576966762543e-002
            -4.2980560660362244e-001 3.7599998712539673e-001
            -5.6451612710952759e-001 1.4942528307437897e-001
            -2.0141342282295227e-001 6.1073827743530273e-001</leafValues></_>
        <_>
          <internalNodes>
            1 2 667 35374 3 4 503 63786 5 6 635 5183 0 -1 679 63991 -2
            -3 432 6079 -4 -5 205 48516 -6 -7 228 21847</internalNodes>
          <leafValues>
            -7.3235350847244263e-001 1.0135442763566971e-001
            -4.9687433242797852e-001 3.3925193548202515e-001
            -6.1220747232437134e-001 2.8930677101016045e-002
            -4.7428062558174133e-001 3.0936226248741150e-001</leafValues></_>
        <_>
          <internalNodes>
            1 2 500 47658 3 4 472 20789 5 6 495 1277 0 -1 112 65501 -2
            -3 606 65280 -4 -5 55 43772 -6 -7 608 1247</internalNodes>
          <leafValues>
            -6.7194342613220215e-001 8.4211915731430054e-001
            -3.2158878445625305e-001 2.5216135382652283e-001
            -4.9085551500320435e-001 5.9334176778793335e-001
            -6.2580978870391846e-001 4.1420453786849976e-001</leafValues></_>
        <_>
          <internalNodes>
            1 2 142 30049 3 0 657 65053 4 5 406 2985 -1 -2 488 44021 -3
            -4 528 58301 -5 -6 84 52352</internalNodes>
          <leafValues>
            1. -7.1427255868911743e-001 4.4643607735633850e-001
            -6.9235861301422119e-001 4.1409492492675781e-001
            -1.2060898542404175e-001 3.0301097035408020e-001</leafValues></_>
        <_>
          <internalNodes>
            1 2 269 35468 3 4 382 22013 5 6 263 4215 0 -1 262 43739 -2
            -3 530 20700 -4 -5 345 48618 -6 -7 182 13364</internalNodes>
          <leafValues>
            -8.5169637203216553e-001 5.8708590269088745e-001
            -6.9130551815032959e-001 2.0617268979549408e-002
            -7.4051755666732788e-001 1.0955870151519775e-001
            -4.8912200331687927e-001 4.4102993607521057e-001</leafValues></_>
        <_>
          <internalNodes>
            1 2 548 45381 3 4 595 59042 5 6 540 19083 0 -1 529 51451 -2
            -3 652 2633 -4 -5 243 63221 -6 -7 587 4761</internalNodes>
          <leafValues>
            -6.2883543968200684e-001 -1.0868643969297409e-001
            -6.5782970190048218e-001 1.8072248995304108e-001
            -7.7712237834930420e-001 2.5309541821479797e-001
            -2.4923174083232880e-001 5.8429127931594849e-001</leafValues></_>
        <_>
          <internalNodes>
            1 2 581 6908 3 4 707 64502 5 6 516 38882 0 -1 312 47927 -2
            -3 53 40092 -4 -5 487 11199 -6 -7 20 30176</internalNodes>
          <leafValues>
            -7.3343056440353394e-001 7.8914374113082886e-002
            -3.9220809936523438e-001 4.9941349029541016e-001
            -5.3682237863540649e-001 1.0660404711961746e-001
            -4.5014378428459167e-001 3.5336139798164368e-001</leafValues></_></weakClassifiers></_></stages>
  <features>
    <_>
      <rect>
        0 0 3 22</rect></_>
    <_>
      <rect>
        0 0 16 20</rect></_>
    <_>
      <rect>
        0 1 3 3</rect></_>
    <_>
      <rect>
        0 2 14 18</rect></_>
    <_>
      <rect>
        0 2 16 14</rect></_>
    <_>
      <rect>
        0 3 3 10</rect></_>
    <_>
      <rect>
        0 6 10 11</rect></_>
    <_>
      <rect>
        0 7 3 3</rect></_>
    <_>
      <rect>
        0 7 12 23</rect></_>
    <_>
      <rect>
        0 7 15 9</rect></_>
    <_>
      <rect>
        0 9 10 15</rect></_>
    <_>
      <rect>
        0 11 12 9</rect></_>
    <_>
      <rect>
        0 11 16 6</rect></_>
    <_>
      <rect>
        0 12 9 6</rect></_>
    <_>
      <rect>
        0 13 9 5</rect></_>
    <_>
      <rect>
        0 13 9 6</rect></_>
    <_>
      <rect>
        0 13 12 6</rect></_>
    <_>
      <rect>
        0 13 19 3</rect></_>
    <_>
      <rect>
        0 14 8 5</rect></_>
    <_>
      <rect>
        0 15 13 3</rect></_>
    <_>
      <rect>
        0 15 21 8</rect></_>
    <_>
      <rect>
        0 16 19 3</rect></_>
    <_>
      <rect>
        0 17 11 3</rect></_>
    <_>
      <rect>
        0 18 16 17</rect></_>
    <_>
      <rect>
        0 22 3 3</rect></_>
    <_>
      <rect>
        0 24 4 3</rect></_>
    <_>
      <rect>
        0 24 13 5</rect></_>
    <_>
      <rect>
        0 25 11 12</rect></_>
    <_>
      <rect>
        0 26 4 11</rect></_>
    <_>
      <rect>
        0 26 32 12</rect></_>
    <_>
      <rect>
        0 28 8 3</rect></_>
    <_>
      <rect>
        0 28 12 4</rect></_>
    <_>
      <rect>
        0 28 35 7</rect></_>
    <_>
      <rect>
        0 29 6 10</rect></_>
    <_>
      <rect>
        0 30 11 5</rect></_>
    <_>
      <rect>
        0 32 3 3</rect></_>
    <_>
      <rect>
        0 32 24 4</rect></_>
    <_>
      <rect>
        0 34 35 3</rect></_>
    <_>
      <rect>
        1 0 4 39</rect></_>
    <_>
      <rect>
        1 0 18 3</rect></_>
    <_>
      <rect>
        1 0 20 3</rect></_>
    <_>
      <rect>
        1 1 3 31</rect></_>
    <_>
      <rect>
        1 1 14 3</rect></_>
    <_>
      <rect>
        1 1 15 9</rect></_>
    <_>
      <rect>
        1 2 14 6</rect></_>
    <_>
      <rect>
        1 3 3 33</rect></_>
    <_>
      <rect>
        1 4 6 7</rect></_>
    <_>
      <rect>
        1 5 3 35</rect></_>
    <_>
      <rect>
        1 5 4 8</rect></_>
    <_>
      <rect>
        1 5 24 24</rect></_>
    <_>
      <rect>
        1 6 3 34</rect></_>
    <_>
      <rect>
        1 7 4 6</rect></_>
    <_>
      <rect>
        1 7 5 3</rect></_>
    <_>
      <rect>
        1 8 3 26</rect></_>
    <_>
      <rect>
        1 8 12 25</rect></_>
    <_>
      <rect>
        1 8 38 15</rect></_>
    <_>
      <rect>
        1 13 6 26</rect></_>
    <_>
      <rect>
        1 14 33 21</rect></_>
    <_>
      <rect>
        1 17 3 17</rect></_>
    <_>
      <rect>
        1 17 20 22</rect></_>
    <_>
      <rect>
        1 19 3 19</rect></_>
    <_>
      <rect>
        1 23 11 4</rect></_>
    <_>
      <rect>
        1 24 5 5</rect></_>
    <_>
      <rect>
        1 25 11 7</rect></_>
    <_>
      <rect>
        1 25 23 6</rect></_>
    <_>
      <rect>
        1 26 22 3</rect></_>
    <_>
      <rect>
        1 26 22 6</rect></_>
    <_>
      <rect>
        1 28 18 7</rect></_>
    <_>
      <rect>
        1 29 17 10</rect></_>
    <_>
      <rect>
        2 1 7 34</rect></_>
    <_>
      <rect>
        2 2 7 5</rect></_>
    <_>
      <rect>
        2 5 28 9</rect></_>
    <_>
      <rect>
        2 6 5 5</rect></_>
    <_>
      <rect>
        2 7 12 3</rect></_>
    <_>
      <rect>
        2 21 3 16</rect></_>
    <_>
      <rect>
        2 24 3 16</rect></_>
    <_>
      <rect>
        2 26 19 7</rect></_>
    <_>
      <rect>
        2 28 38 5</rect></_>
    <_>
      <rect>
        2 31 20 3</rect></_>
    <_>
      <rect>
        3 1 15 29</rect></_>
    <_>
      <rect>
        3 3 10 9</rect></_>
    <_>
      <rect>
        3 5 5 6</rect></_>
    <_>
      <rect>
        3 5 21 7</rect></_>
    <_>
      <rect>
        3 7 5 4</rect></_>
    <_>
      <rect>
        3 9 3 4</rect></_>
    <_>
      <rect>
        3 9 27 22</rect></_>
    <_>
      <rect>
        3 19 7 7</rect></_>
    <_>
      <rect>
        4 0 10 5</rect></_>
    <_>
      <rect>
        4 0 23 3</rect></_>
    <_>
      <rect>
        4 1 3 11</rect></_>
    <_>
      <rect>
        4 1 9 8</rect></_>
    <_>
      <rect>
        4 2 4 16</rect></_>
    <_>
      <rect>
        4 2 19 19</rect></_>
    <_>
      <rect>
        4 5 4 5</rect></_>
    <_>
      <rect>
        4 6 3 13</rect></_>
    <_>
      <rect>
        4 6 4 9</rect></_>
    <_>
      <rect>
        4 7 11 3</rect></_>
    <_>
      <rect>
        4 9 3 9</rect></_>
    <_>
      <rect>
        4 9 13 10</rect></_>
    <_>
      <rect>
        4 9 15 7</rect></_>
    <_>
      <rect>
        4 12 36 5</rect></_>
    <_>
      <rect>
        4 12 36 25</rect></_>
    <_>
      <rect>
        4 16 9 4</rect></_>
    <_>
      <rect>
        4 16 23 24</rect></_>
    <_>
      <rect>
        4 17 23 4</rect></_>
    <_>
      <rect>
        4 20 18 12</rect></_>
    <_>
      <rect>
        4 25 33 6</rect></_>
    <_>
      <rect>
        4 26 25 3</rect></_>
    <_>
      <rect>
        4 29 36 5</rect></_>
    <_>
      <rect>
        4 31 24 6</rect></_>
    <_>
      <rect>
        5 0 4 22</rect></_>
    <_>
      <rect>
        5 2 4 19</rect></_>
    <_>
      <rect>
        5 2 20 7</rect></_>
    <_>
      <rect>
        5 3 22 33</rect></_>
    <_>
      <rect>
        5 4 13 19</rect></_>
    <_>
      <rect>
        5 8 10 4</rect></_>
    <_>
      <rect>
        5 14 16 25</rect></_>
    <_>
      <rect>
        5 15 4 3</rect></_>
    <_>
      <rect>
        5 15 24 24</rect></_>
    <_>
      <rect>
        5 17 3 4</rect></_>
    <_>
      <rect>
        5 17 3 6</rect></_>
    <_>
      <rect>
        5 18 3 8</rect></_>
    <_>
      <rect>
        5 19 17 3</rect></_>
    <_>
      <rect>
        5 21 23 3</rect></_>
    <_>
      <rect>
        5 22 30 13</rect></_>
    <_>
      <rect>
        5 24 16 3</rect></_>
    <_>
      <rect>
        5 25 6 13</rect></_>
    <_>
      <rect>
        5 25 27 13</rect></_>
    <_>
      <rect>
        5 26 6 7</rect></_>
    <_>
      <rect>
        5 28 8 7</rect></_>
    <_>
      <rect>
        5 29 4 9</rect></_>
    <_>
      <rect>
        5 31 21 4</rect></_>
    <_>
      <rect>
        6 0 10 4</rect></_>
    <_>
      <rect>
        6 6 8 4</rect></_>
    <_>
      <rect>
        6 8 5 17</rect></_>
    <_>
      <rect>
        6 9 7 10</rect></_>
    <_>
      <rect>
        6 9 33 5</rect></_>
    <_>
      <rect>
        6 10 31 29</rect></_>
    <_>
      <rect>
        6 11 16 26</rect></_>
    <_>
      <rect>
        6 13 3 14</rect></_>
    <_>
      <rect>
        6 14 3 9</rect></_>
    <_>
      <rect>
        6 15 3 6</rect></_>
    <_>
      <rect>
        6 17 3 3</rect></_>
    <_>
      <rect>
        6 17 3 4</rect></_>
    <_>
      <rect>
        6 19 5 3</rect></_>
    <_>
      <rect>
        6 19 15 4</rect></_>
    <_>
      <rect>
        6 19 16 3</rect></_>
    <_>
      <rect>
        6 19 18 5</rect></_>
    <_>
      <rect>
        6 20 20 6</rect></_>
    <_>
      <rect>
        6 21 14 9</rect></_>
    <_>
      <rect>
        6 23 5 5</rect></_>
    <_>
      <rect>
        6 23 24 15</rect></_>
    <_>
      <rect>
        6 24 10 15</rect></_>
    <_>
      <rect>
        6 27 4 6</rect></_>
    <_>
      <rect>
        6 27 5 10</rect></_>
    <_>
      <rect>
        6 27 9 8</rect></_>
    <_>
      <rect>
        6 31 10 6</rect></_>
    <_>
      <rect>
        6 35 9 3</rect></_>
    <_>
      <rect>
        7 0 7 4</rect></_>
    <_>
      <rect>
        7 0 11 3</rect></_>
    <_>
      <rect>
        7 1 10 5</rect></_>
    <_>
      <rect>
        7 2 4 12</rect></_>
    <_>
      <rect>
        7 4 10 35</rect></_>
    <_>
      <rect>
        7 12 6 26</rect></_>
    <_>
      <rect>
        7 15 3 18</rect></_>
    <_>
      <rect>
        7 15 7 4</rect></_>
    <_>
      <rect>
        7 21 17 16</rect></_>
    <_>
      <rect>
        7 24 21 8</rect></_>
    <_>
      <rect>
        7 25 20 7</rect></_>
    <_>
      <rect>
        7 26 7 12</rect></_>
    <_>
      <rect>
        7 32 10 7</rect></_>
    <_>
      <rect>
        7 32 13 7</rect></_>
    <_>
      <rect>
        8 0 6 4</rect></_>
    <_>
      <rect>
        8 1 5 3</rect></_>
    <_>
      <rect>
        8 1 7 3</rect></_>
    <_>
      <rect>
        8 3 3 3</rect></_>
    <_>
      <rect>
        8 3 6 3</rect></_>
    <_>
      <rect>
        8 4 5 6</rect></_>
    <_>
      <rect>
        8 7 11 30</rect></_>
    <_>
      <rect>
        8 11 5 4</rect></_>
    <_>
      <rect>
        8 12 4 22</rect></_>
    <_>
      <rect>
        8 12 13 27</rect></_>
    <_>
      <rect>
        8 16 6 4</rect></_>
    <_>
      <rect>
        8 17 3 9</rect></_>
    <_>
      <rect>
        8 18 22 14</rect></_>
    <_>
      <rect>
        8 20 4 8</rect></_>
    <_>
      <rect>
        8 21 18 5</rect></_>
    <_>
      <rect>
        8 23 18 14</rect></_>
    <_>
      <rect>
        8 24 18 15</rect></_>
    <_>
      <rect>
        8 27 21 10</rect></_>
    <_>
      <rect>
        8 29 6 9</rect></_>
    <_>
      <rect>
        8 29 7 10</rect></_>
    <_>
      <rect>
        8 31 24 3</rect></_>
    <_>
      <rect>
        8 35 10 5</rect></_>
    <_>
      <rect>
        9 1 5 10</rect></_>
    <_>
      <rect>
        9 4 8 36</rect></_>
    <_>
      <rect>
        9 6 3 18</rect></_>
    <_>
      <rect>
        9 6 7 31</rect></_>
    <_>
      <rect>
        9 8 9 8</rect></_>
    <_>
      <rect>
        9 10 5 3</rect></_>
    <_>
      <rect>
        9 14 9 20</rect></_>
    <_>
      <rect>
        9 14 10 12</rect></_>
    <_>
      <rect>
        9 15 3 4</rect></_>
    <_>
      <rect>
        9 15 3 9</rect></_>
    <_>
      <rect>
        9 19 6 17</rect></_>
    <_>
      <rect>
        9 20 4 3</rect></_>
    <_>
      <rect>
        9 20 6 8</rect></_>
    <_>
      <rect>
        9 20 15 16</rect></_>
    <_>
      <rect>
        9 21 17 18</rect></_>
    <_>
      <rect>
        9 24 17 13</rect></_>
    <_>
      <rect>
        9 24 19 6</rect></_>
    <_>
      <rect>
        9 25 19 4</rect></_>
    <_>
      <rect>
        9 26 3 8</rect></_>
    <_>
      <rect>
        9 31 5 3</rect></_>
    <_>
      <rect>
        9 31 5 6</rect></_>
    <_>
      <rect>
        9 31 14 8</rect></_>
    <_>
      <rect>
        9 35 16 3</rect></_>
    <_>
      <rect>
        10 0 5 3</rect></_>
    <_>
      <rect>
        10 0 7 3</rect></_>
    <_>
      <rect>
        10 1 3 10</rect></_>
    <_>
      <rect>
        10 1 12 5</rect></_>
    <_>
      <rect>
        10 2 3 3</rect></_>
    <_>
      <rect>
        10 2 3 16</rect></_>
    <_>
      <rect>
        10 2 8 37</rect></_>
    <_>
      <rect>
        10 7 3 7</rect></_>
    <_>
      <rect>
        10 7 4 6</rect></_>
    <_>
      <rect>
        10 7 6 7</rect></_>
    <_>
      <rect>
        10 12 4 11</rect></_>
    <_>
      <rect>
        10 14 3 3</rect></_>
    <_>
      <rect>
        10 14 5 3</rect></_>
    <_>
      <rect>
        10 17 13 14</rect></_>
    <_>
      <rect>
        10 19 14 18</rect></_>
    <_>
      <rect>
        10 20 7 4</rect></_>
    <_>
      <rect>
        10 22 3 4</rect></_>
    <_>
      <rect>
        10 22 5 3</rect></_>
    <_>
      <rect>
        10 23 15 15</rect></_>
    <_>
      <rect>
        10 23 19 17</rect></_>
    <_>
      <rect>
        10 23 23 14</rect></_>
    <_>
      <rect>
        10 24 6 7</rect></_>
    <_>
      <rect>
        10 24 10 6</rect></_>
    <_>
      <rect>
        10 26 7 13</rect></_>
    <_>
      <rect>
        10 27 4 5</rect></_>
    <_>
      <rect>
        10 27 8 9</rect></_>
    <_>
      <rect>
        10 28 3 9</rect></_>
    <_>
      <rect>
        10 29 16 10</rect></_>
    <_>
      <rect>
        10 31 3 7</rect></_>
    <_>
      <rect>
        10 32 30 3</rect></_>
    <_>
      <rect>
        10 33 13 3</rect></_>
    <_>
      <rect>
        10 35 9 3</rect></_>
    <_>
      <rect>
        11 0 3 13</rect></_>
    <_>
      <rect>
        11 0 7 3</rect></_>
    <_>
      <rect>
        11 0 7 4</rect></_>
    <_>
      <rect>
        11 0 10 3</rect></_>
    <_>
      <rect>
        11 0 10 4</rect></_>
    <_>
      <rect>
        11 3 4 31</rect></_>
    <_>
      <rect>
        11 6 9 11</rect></_>
    <_>
      <rect>
        11 7 3 12</rect></_>
    <_>
      <rect>
        11 9 3 7</rect></_>
    <_>
      <rect>
        11 10 3 18</rect></_>
    <_>
      <rect>
        11 10 4 26</rect></_>
    <_>
      <rect>
        11 11 6 5</rect></_>
    <_>
      <rect>
        11 11 12 26</rect></_>
    <_>
      <rect>
        11 13 14 27</rect></_>
    <_>
      <rect>
        11 14 3 11</rect></_>
    <_>
      <rect>
        11 17 13 8</rect></_>
    <_>
      <rect>
        11 18 3 13</rect></_>
    <_>
      <rect>
        11 19 5 6</rect></_>
    <_>
      <rect>
        11 19 8 4</rect></_>
    <_>
      <rect>
        11 19 10 4</rect></_>
    <_>
      <rect>
        11 20 3 3</rect></_>
    <_>
      <rect>
        11 20 6 3</rect></_>
    <_>
      <rect>
        11 21 7 3</rect></_>
    <_>
      <rect>
        11 21 11 4</rect></_>
    <_>
      <rect>
        11 22 3 4</rect></_>
    <_>
      <rect>
        11 22 6 3</rect></_>
    <_>
      <rect>
        11 22 7 13</rect></_>
    <_>
      <rect>
        11 24 3 4</rect></_>
    <_>
      <rect>
        11 24 11 3</rect></_>
    <_>
      <rect>
        11 25 4 12</rect></_>
    <_>
      <rect>
        11 25 21 4</rect></_>
    <_>
      <rect>
        11 26 17 3</rect></_>
    <_>
      <rect>
        11 26 22 4</rect></_>
    <_>
      <rect>
        11 27 9 10</rect></_>
    <_>
      <rect>
        11 27 10 7</rect></_>
    <_>
      <rect>
        11 28 3 7</rect></_>
    <_>
      <rect>
        11 29 7 9</rect></_>
    <_>
      <rect>
        11 30 7 6</rect></_>
    <_>
      <rect>
        11 34 17 3</rect></_>
    <_>
      <rect>
        11 36 18 3</rect></_>
    <_>
      <rect>
        12 0 7 3</rect></_>
    <_>
      <rect>
        12 1 3 16</rect></_>
    <_>
      <rect>
        12 4 4 8</rect></_>
    <_>
      <rect>
        12 6 3 33</rect></_>
    <_>
      <rect>
        12 7 3 14</rect></_>
    <_>
      <rect>
        12 7 5 21</rect></_>
    <_>
      <rect>
        12 7 15 21</rect></_>
    <_>
      <rect>
        12 8 4 28</rect></_>
    <_>
      <rect>
        12 9 3 21</rect></_>
    <_>
      <rect>
        12 10 3 6</rect></_>
    <_>
      <rect>
        12 12 4 15</rect></_>
    <_>
      <rect>
        12 15 8 13</rect></_>
    <_>
      <rect>
        12 18 23 7</rect></_>
    <_>
      <rect>
        12 18 24 22</rect></_>
    <_>
      <rect>
        12 18 25 11</rect></_>
    <_>
      <rect>
        12 19 10 5</rect></_>
    <_>
      <rect>
        12 20 3 6</rect></_>
    <_>
      <rect>
        12 20 4 6</rect></_>
    <_>
      <rect>
        12 20 5 5</rect></_>
    <_>
      <rect>
        12 21 8 8</rect></_>
    <_>
      <rect>
        12 22 4 8</rect></_>
    <_>
      <rect>
        12 24 9 3</rect></_>
    <_>
      <rect>
        12 24 12 15</rect></_>
    <_>
      <rect>
        12 26 4 11</rect></_>
    <_>
      <rect>
        12 27 22 9</rect></_>
    <_>
      <rect>
        12 28 4 9</rect></_>
    <_>
      <rect>
        12 30 12 4</rect></_>
    <_>
      <rect>
        13 4 26 3</rect></_>
    <_>
      <rect>
        13 7 6 3</rect></_>
    <_>
      <rect>
        13 13 5 15</rect></_>
    <_>
      <rect>
        13 13 23 11</rect></_>
    <_>
      <rect>
        13 14 7 10</rect></_>
    <_>
      <rect>
        13 15 5 16</rect></_>
    <_>
      <rect>
        13 19 22 4</rect></_>
    <_>
      <rect>
        13 21 4 7</rect></_>
    <_>
      <rect>
        13 23 12 12</rect></_>
    <_>
      <rect>
        13 24 3 3</rect></_>
    <_>
      <rect>
        13 25 3 12</rect></_>
    <_>
      <rect>
        13 27 6 8</rect></_>
    <_>
      <rect>
        13 29 4 7</rect></_>
    <_>
      <rect>
        13 32 3 5</rect></_>
    <_>
      <rect>
        13 36 6 3</rect></_>
    <_>
      <rect>
        14 1 4 10</rect></_>
    <_>
      <rect>
        14 1 5 39</rect></_>
    <_>
      <rect>
        14 1 6 6</rect></_>
    <_>
      <rect>
        14 1 12 5</rect></_>
    <_>
      <rect>
        14 1 14 5</rect></_>
    <_>
      <rect>
        14 2 3 6</rect></_>
    <_>
      <rect>
        14 5 24 22</rect></_>
    <_>
      <rect>
        14 6 4 9</rect></_>
    <_>
      <rect>
        14 7 3 3</rect></_>
    <_>
      <rect>
        14 7 3 4</rect></_>
    <_>
      <rect>
        14 10 3 15</rect></_>
    <_>
      <rect>
        14 11 19 11</rect></_>
    <_>
      <rect>
        14 14 6 19</rect></_>
    <_>
      <rect>
        14 16 7 3</rect></_>
    <_>
      <rect>
        14 17 6 10</rect></_>
    <_>
      <rect>
        14 18 3 5</rect></_>
    <_>
      <rect>
        14 18 7 3</rect></_>
    <_>
      <rect>
        14 18 20 21</rect></_>
    <_>
      <rect>
        14 19 3 3</rect></_>
    <_>
      <rect>
        14 19 3 4</rect></_>
    <_>
      <rect>
        14 19 3 17</rect></_>
    <_>
      <rect>
        14 19 5 3</rect></_>
    <_>
      <rect>
        14 19 7 4</rect></_>
    <_>
      <rect>
        14 19 8 3</rect></_>
    <_>
      <rect>
        14 21 4 5</rect></_>
    <_>
      <rect>
        14 21 4 18</rect></_>
    <_>
      <rect>
        14 21 6 5</rect></_>
    <_>
      <rect>
        14 21 14 3</rect></_>
    <_>
      <rect>
        14 22 7 15</rect></_>
    <_>
      <rect>
        14 22 10 9</rect></_>
    <_>
      <rect>
        14 24 3 7</rect></_>
    <_>
      <rect>
        14 24 5 15</rect></_>
    <_>
      <rect>
        14 24 20 5</rect></_>
    <_>
      <rect>
        14 25 10 10</rect></_>
    <_>
      <rect>
        14 28 11 9</rect></_>
    <_>
      <rect>
        14 30 3 8</rect></_>
    <_>
      <rect>
        14 30 15 8</rect></_>
    <_>
      <rect>
        14 30 17 6</rect></_>
    <_>
      <rect>
        14 31 3 6</rect></_>
    <_>
      <rect>
        14 31 4 9</rect></_>
    <_>
      <rect>
        14 33 14 6</rect></_>
    <_>
      <rect>
        15 0 5 3</rect></_>
    <_>
      <rect>
        15 0 6 3</rect></_>
    <_>
      <rect>
        15 0 8 3</rect></_>
    <_>
      <rect>
        15 0 16 4</rect></_>
    <_>
      <rect>
        15 1 4 4</rect></_>
    <_>
      <rect>
        15 2 5 33</rect></_>
    <_>
      <rect>
        15 5 6 34</rect></_>
    <_>
      <rect>
        15 6 4 18</rect></_>
    <_>
      <rect>
        15 6 10 3</rect></_>
    <_>
      <rect>
        15 7 3 22</rect></_>
    <_>
      <rect>
        15 8 3 17</rect></_>
    <_>
      <rect>
        15 8 5 18</rect></_>
    <_>
      <rect>
        15 11 5 5</rect></_>
    <_>
      <rect>
        15 11 25 22</rect></_>
    <_>
      <rect>
        15 17 4 4</rect></_>
    <_>
      <rect>
        15 17 4 7</rect></_>
    <_>
      <rect>
        15 17 5 3</rect></_>
    <_>
      <rect>
        15 17 6 3</rect></_>
    <_>
      <rect>
        15 18 4 5</rect></_>
    <_>
      <rect>
        15 18 5 3</rect></_>
    <_>
      <rect>
        15 18 8 3</rect></_>
    <_>
      <rect>
        15 19 4 6</rect></_>
    <_>
      <rect>
        15 19 5 20</rect></_>
    <_>
      <rect>
        15 19 6 4</rect></_>
    <_>
      <rect>
        15 19 7 11</rect></_>
    <_>
      <rect>
        15 20 3 5</rect></_>
    <_>
      <rect>
        15 20 6 3</rect></_>
    <_>
      <rect>
        15 20 6 5</rect></_>
    <_>
      <rect>
        15 20 8 3</rect></_>
    <_>
      <rect>
        15 20 8 17</rect></_>
    <_>
      <rect>
        15 20 8 18</rect></_>
    <_>
      <rect>
        15 20 15 4</rect></_>
    <_>
      <rect>
        15 26 15 4</rect></_>
    <_>
      <rect>
        15 27 16 3</rect></_>
    <_>
      <rect>
        15 27 18 8</rect></_>
    <_>
      <rect>
        15 29 16 9</rect></_>
    <_>
      <rect>
        15 30 15 9</rect></_>
    <_>
      <rect>
        15 36 4 3</rect></_>
    <_>
      <rect>
        15 36 17 4</rect></_>
    <_>
      <rect>
        16 1 11 5</rect></_>
    <_>
      <rect>
        16 5 3 3</rect></_>
    <_>
      <rect>
        16 6 3 3</rect></_>
    <_>
      <rect>
        16 6 4 3</rect></_>
    <_>
      <rect>
        16 7 24 3</rect></_>
    <_>
      <rect>
        16 8 5 21</rect></_>
    <_>
      <rect>
        16 8 11 10</rect></_>
    <_>
      <rect>
        16 12 5 5</rect></_>
    <_>
      <rect>
        16 14 7 23</rect></_>
    <_>
      <rect>
        16 15 18 23</rect></_>
    <_>
      <rect>
        16 16 12 5</rect></_>
    <_>
      <rect>
        16 17 3 3</rect></_>
    <_>
      <rect>
        16 18 5 4</rect></_>
    <_>
      <rect>
        16 19 5 4</rect></_>
    <_>
      <rect>
        16 20 4 7</rect></_>
    <_>
      <rect>
        16 21 5 3</rect></_>
    <_>
      <rect>
        16 21 7 17</rect></_>
    <_>
      <rect>
        16 26 17 10</rect></_>
    <_>
      <rect>
        16 27 15 4</rect></_>
    <_>
      <rect>
        16 27 15 5</rect></_>
    <_>
      <rect>
        16 27 19 3</rect></_>
    <_>
      <rect>
        16 28 9 6</rect></_>
    <_>
      <rect>
        16 37 5 3</rect></_>
    <_>
      <rect>
        17 0 4 4</rect></_>
    <_>
      <rect>
        17 0 10 3</rect></_>
    <_>
      <rect>
        17 0 11 3</rect></_>
    <_>
      <rect>
        17 0 22 3</rect></_>
    <_>
      <rect>
        17 1 3 3</rect></_>
    <_>
      <rect>
        17 1 4 6</rect></_>
    <_>
      <rect>
        17 1 5 9</rect></_>
    <_>
      <rect>
        17 1 10 8</rect></_>
    <_>
      <rect>
        17 2 6 4</rect></_>
    <_>
      <rect>
        17 4 3 9</rect></_>
    <_>
      <rect>
        17 4 4 35</rect></_>
    <_>
      <rect>
        17 4 5 3</rect></_>
    <_>
      <rect>
        17 5 3 10</rect></_>
    <_>
      <rect>
        17 5 4 23</rect></_>
    <_>
      <rect>
        17 6 3 28</rect></_>
    <_>
      <rect>
        17 7 3 20</rect></_>
    <_>
      <rect>
        17 8 3 15</rect></_>
    <_>
      <rect>
        17 8 6 7</rect></_>
    <_>
      <rect>
        17 11 3 4</rect></_>
    <_>
      <rect>
        17 11 3 9</rect></_>
    <_>
      <rect>
        17 11 8 3</rect></_>
    <_>
      <rect>
        17 12 12 3</rect></_>
    <_>
      <rect>
        17 12 21 9</rect></_>
    <_>
      <rect>
        17 13 7 4</rect></_>
    <_>
      <rect>
        17 14 9 8</rect></_>
    <_>
      <rect>
        17 15 10 6</rect></_>
    <_>
      <rect>
        17 15 17 23</rect></_>
    <_>
      <rect>
        17 18 5 3</rect></_>
    <_>
      <rect>
        17 21 4 18</rect></_>
    <_>
      <rect>
        17 25 8 7</rect></_>
    <_>
      <rect>
        17 27 5 7</rect></_>
    <_>
      <rect>
        17 28 13 10</rect></_>
    <_>
      <rect>
        17 29 6 7</rect></_>
    <_>
      <rect>
        17 29 14 6</rect></_>
    <_>
      <rect>
        17 30 11 7</rect></_>
    <_>
      <rect>
        18 0 3 3</rect></_>
    <_>
      <rect>
        18 1 3 3</rect></_>
    <_>
      <rect>
        18 2 14 36</rect></_>
    <_>
      <rect>
        18 3 22 3</rect></_>
    <_>
      <rect>
        18 4 5 3</rect></_>
    <_>
      <rect>
        18 5 22 23</rect></_>
    <_>
      <rect>
        18 6 10 3</rect></_>
    <_>
      <rect>
        18 7 3 4</rect></_>
    <_>
      <rect>
        18 10 3 13</rect></_>
    <_>
      <rect>
        18 10 21 12</rect></_>
    <_>
      <rect>
        18 13 5 8</rect></_>
    <_>
      <rect>
        18 14 6 8</rect></_>
    <_>
      <rect>
        18 16 11 7</rect></_>
    <_>
      <rect>
        18 17 6 4</rect></_>
    <_>
      <rect>
        18 22 4 18</rect></_>
    <_>
      <rect>
        18 22 7 14</rect></_>
    <_>
      <rect>
        18 24 4 3</rect></_>
    <_>
      <rect>
        18 27 11 10</rect></_>
    <_>
      <rect>
        18 36 6 3</rect></_>
    <_>
      <rect>
        19 0 4 3</rect></_>
    <_>
      <rect>
        19 0 9 3</rect></_>
    <_>
      <rect>
        19 5 3 29</rect></_>
    <_>
      <rect>
        19 6 6 28</rect></_>
    <_>
      <rect>
        19 6 8 4</rect></_>
    <_>
      <rect>
        19 7 13 31</rect></_>
    <_>
      <rect>
        19 8 3 21</rect></_>
    <_>
      <rect>
        19 8 3 28</rect></_>
    <_>
      <rect>
        19 8 7 25</rect></_>
    <_>
      <rect>
        19 8 7 28</rect></_>
    <_>
      <rect>
        19 14 12 15</rect></_>
    <_>
      <rect>
        19 19 3 3</rect></_>
    <_>
      <rect>
        19 19 3 18</rect></_>
    <_>
      <rect>
        19 19 3 21</rect></_>
    <_>
      <rect>
        19 19 4 20</rect></_>
    <_>
      <rect>
        19 20 3 3</rect></_>
    <_>
      <rect>
        19 22 3 17</rect></_>
    <_>
      <rect>
        19 22 4 15</rect></_>
    <_>
      <rect>
        19 23 8 9</rect></_>
    <_>
      <rect>
        19 24 7 14</rect></_>
    <_>
      <rect>
        19 25 9 7</rect></_>
    <_>
      <rect>
        19 26 12 14</rect></_>
    <_>
      <rect>
        19 27 4 11</rect></_>
    <_>
      <rect>
        19 29 11 7</rect></_>
    <_>
      <rect>
        19 31 8 7</rect></_>
    <_>
      <rect>
        19 32 21 8</rect></_>
    <_>
      <rect>
        19 33 9 4</rect></_>
    <_>
      <rect>
        19 34 12 5</rect></_>
    <_>
      <rect>
        19 36 3 4</rect></_>
    <_>
      <rect>
        19 37 3 3</rect></_>
    <_>
      <rect>
        20 0 8 3</rect></_>
    <_>
      <rect>
        20 0 8 28</rect></_>
    <_>
      <rect>
        20 2 3 36</rect></_>
    <_>
      <rect>
        20 3 17 19</rect></_>
    <_>
      <rect>
        20 4 4 35</rect></_>
    <_>
      <rect>
        20 6 3 27</rect></_>
    <_>
      <rect>
        20 7 5 11</rect></_>
    <_>
      <rect>
        20 7 8 17</rect></_>
    <_>
      <rect>
        20 9 15 30</rect></_>
    <_>
      <rect>
        20 10 4 18</rect></_>
    <_>
      <rect>
        20 14 9 17</rect></_>
    <_>
      <rect>
        20 15 3 10</rect></_>
    <_>
      <rect>
        20 17 7 23</rect></_>
    <_>
      <rect>
        20 18 7 22</rect></_>
    <_>
      <rect>
        20 18 19 5</rect></_>
    <_>
      <rect>
        20 20 3 18</rect></_>
    <_>
      <rect>
        20 23 7 9</rect></_>
    <_>
      <rect>
        20 24 7 11</rect></_>
    <_>
      <rect>
        20 25 3 8</rect></_>
    <_>
      <rect>
        20 28 9 4</rect></_>
    <_>
      <rect>
        20 35 8 4</rect></_>
    <_>
      <rect>
        20 37 3 3</rect></_>
    <_>
      <rect>
        20 37 11 3</rect></_>
    <_>
      <rect>
        21 2 19 21</rect></_>
    <_>
      <rect>
        21 8 14 13</rect></_>
    <_>
      <rect>
        21 11 19 29</rect></_>
    <_>
      <rect>
        21 13 7 4</rect></_>
    <_>
      <rect>
        21 16 4 5</rect></_>
    <_>
      <rect>
        21 25 4 7</rect></_>
    <_>
      <rect>
        21 25 7 5</rect></_>
    <_>
      <rect>
        21 26 6 11</rect></_>
    <_>
      <rect>
        21 27 10 5</rect></_>
    <_>
      <rect>
        21 28 9 7</rect></_>
    <_>
      <rect>
        21 29 9 3</rect></_>
    <_>
      <rect>
        21 30 9 8</rect></_>
    <_>
      <rect>
        22 1 3 8</rect></_>
    <_>
      <rect>
        22 2 7 18</rect></_>
    <_>
      <rect>
        22 2 9 6</rect></_>
    <_>
      <rect>
        22 3 3 16</rect></_>
    <_>
      <rect>
        22 6 5 17</rect></_>
    <_>
      <rect>
        22 6 18 3</rect></_>
    <_>
      <rect>
        22 8 3 6</rect></_>
    <_>
      <rect>
        22 9 18 31</rect></_>
    <_>
      <rect>
        22 10 6 4</rect></_>
    <_>
      <rect>
        22 15 6 13</rect></_>
    <_>
      <rect>
        22 17 4 21</rect></_>
    <_>
      <rect>
        22 20 6 19</rect></_>
    <_>
      <rect>
        22 21 5 10</rect></_>
    <_>
      <rect>
        22 23 5 8</rect></_>
    <_>
      <rect>
        22 25 6 6</rect></_>
    <_>
      <rect>
        22 26 3 6</rect></_>
    <_>
      <rect>
        22 27 3 7</rect></_>
    <_>
      <rect>
        22 27 7 11</rect></_>
    <_>
      <rect>
        22 29 7 9</rect></_>
    <_>
      <rect>
        22 33 3 5</rect></_>
    <_>
      <rect>
        22 33 3 7</rect></_>
    <_>
      <rect>
        22 33 13 4</rect></_>
    <_>
      <rect>
        22 34 6 5</rect></_>
    <_>
      <rect>
        22 35 11 3</rect></_>
    <_>
      <rect>
        23 2 5 23</rect></_>
    <_>
      <rect>
        23 5 4 34</rect></_>
    <_>
      <rect>
        23 6 3 11</rect></_>
    <_>
      <rect>
        23 6 3 32</rect></_>
    <_>
      <rect>
        23 6 12 3</rect></_>
    <_>
      <rect>
        23 7 3 4</rect></_>
    <_>
      <rect>
        23 7 7 31</rect></_>
    <_>
      <rect>
        23 8 17 16</rect></_>
    <_>
      <rect>
        23 13 3 16</rect></_>
    <_>
      <rect>
        23 14 3 9</rect></_>
    <_>
      <rect>
        23 16 3 12</rect></_>
    <_>
      <rect>
        23 17 5 20</rect></_>
    <_>
      <rect>
        23 19 4 11</rect></_>
    <_>
      <rect>
        23 19 5 7</rect></_>
    <_>
      <rect>
        23 21 10 15</rect></_>
    <_>
      <rect>
        23 22 4 6</rect></_>
    <_>
      <rect>
        23 22 4 9</rect></_>
    <_>
      <rect>
        23 23 3 8</rect></_>
    <_>
      <rect>
        23 25 3 5</rect></_>
    <_>
      <rect>
        23 27 5 5</rect></_>
    <_>
      <rect>
        23 27 12 13</rect></_>
    <_>
      <rect>
        23 30 4 5</rect></_>
    <_>
      <rect>
        23 30 7 9</rect></_>
    <_>
      <rect>
        24 0 3 4</rect></_>
    <_>
      <rect>
        24 0 4 5</rect></_>
    <_>
      <rect>
        24 0 5 4</rect></_>
    <_>
      <rect>
        24 1 3 14</rect></_>
    <_>
      <rect>
        24 1 3 17</rect></_>
    <_>
      <rect>
        24 1 6 9</rect></_>
    <_>
      <rect>
        24 2 5 3</rect></_>
    <_>
      <rect>
        24 2 6 3</rect></_>
    <_>
      <rect>
        24 7 4 7</rect></_>
    <_>
      <rect>
        24 10 3 9</rect></_>
    <_>
      <rect>
        24 11 3 11</rect></_>
    <_>
      <rect>
        24 14 4 3</rect></_>
    <_>
      <rect>
        24 17 3 22</rect></_>
    <_>
      <rect>
        24 18 3 10</rect></_>
    <_>
      <rect>
        24 20 3 11</rect></_>
    <_>
      <rect>
        24 23 3 7</rect></_>
    <_>
      <rect>
        24 24 5 9</rect></_>
    <_>
      <rect>
        24 26 3 7</rect></_>
    <_>
      <rect>
        24 26 5 5</rect></_>
    <_>
      <rect>
        24 29 3 9</rect></_>
    <_>
      <rect>
        24 31 9 4</rect></_>
    <_>
      <rect>
        24 32 3 3</rect></_>
    <_>
      <rect>
        24 33 7 5</rect></_>
    <_>
      <rect>
        24 34 7 3</rect></_>
    <_>
      <rect>
        24 36 7 4</rect></_>
    <_>
      <rect>
        24 37 5 3</rect></_>
    <_>
      <rect>
        25 1 3 10</rect></_>
    <_>
      <rect>
        25 1 4 5</rect></_>
    <_>
      <rect>
        25 2 11 3</rect></_>
    <_>
      <rect>
        25 3 8 37</rect></_>
    <_>
      <rect>
        25 5 15 10</rect></_>
    <_>
      <rect>
        25 6 10 6</rect></_>
    <_>
      <rect>
        25 8 4 5</rect></_>
    <_>
      <rect>
        25 8 6 4</rect></_>
    <_>
      <rect>
        25 12 4 4</rect></_>
    <_>
      <rect>
        25 17 3 5</rect></_>
    <_>
      <rect>
        25 23 5 9</rect></_>
    <_>
      <rect>
        25 27 3 8</rect></_>
    <_>
      <rect>
        25 27 4 4</rect></_>
    <_>
      <rect>
        25 28 4 9</rect></_>
    <_>
      <rect>
        25 30 7 9</rect></_>
    <_>
      <rect>
        25 31 3 8</rect></_>
    <_>
      <rect>
        25 33 3 5</rect></_>
    <_>
      <rect>
        25 35 7 3</rect></_>
    <_>
      <rect>
        26 2 3 13</rect></_>
    <_>
      <rect>
        26 2 6 3</rect></_>
    <_>
      <rect>
        26 12 14 18</rect></_>
    <_>
      <rect>
        26 24 8 8</rect></_>
    <_>
      <rect>
        26 28 4 4</rect></_>
    <_>
      <rect>
        27 13 7 6</rect></_>
    <_>
      <rect>
        27 17 13 19</rect></_>
    <_>
      <rect>
        27 25 4 7</rect></_>
    <_>
      <rect>
        27 25 6 4</rect></_>
    <_>
      <rect>
        27 28 8 7</rect></_>
    <_>
      <rect>
        28 4 11 13</rect></_>
    <_>
      <rect>
        28 12 4 27</rect></_>
    <_>
      <rect>
        28 12 6 27</rect></_>
    <_>
      <rect>
        28 16 10 23</rect></_>
    <_>
      <rect>
        28 20 7 10</rect></_>
    <_>
      <rect>
        28 21 6 6</rect></_>
    <_>
      <rect>
        28 22 6 8</rect></_>
    <_>
      <rect>
        28 26 3 14</rect></_>
    <_>
      <rect>
        28 27 4 10</rect></_>
    <_>
      <rect>
        28 30 6 9</rect></_>
    <_>
      <rect>
        29 2 4 7</rect></_>
    <_>
      <rect>
        29 5 11 18</rect></_>
    <_>
      <rect>
        29 9 5 24</rect></_>
    <_>
      <rect>
        29 10 7 16</rect></_>
    <_>
      <rect>
        29 14 4 3</rect></_>
    <_>
      <rect>
        29 15 7 14</rect></_>
    <_>
      <rect>
        29 15 9 17</rect></_>
    <_>
      <rect>
        29 19 4 9</rect></_>
    <_>
      <rect>
        29 22 11 15</rect></_>
    <_>
      <rect>
        29 24 3 5</rect></_>
    <_>
      <rect>
        29 24 6 10</rect></_>
    <_>
      <rect>
        29 25 3 8</rect></_>
    <_>
      <rect>
        29 25 11 6</rect></_>
    <_>
      <rect>
        29 29 3 5</rect></_>
    <_>
      <rect>
        29 29 11 11</rect></_>
    <_>
      <rect>
        29 35 5 3</rect></_>
    <_>
      <rect>
        30 0 6 27</rect></_>
    <_>
      <rect>
        30 10 7 17</rect></_>
    <_>
      <rect>
        30 17 5 16</rect></_>
    <_>
      <rect>
        30 17 7 7</rect></_>
    <_>
      <rect>
        30 22 3 6</rect></_>
    <_>
      <rect>
        30 22 3 8</rect></_>
    <_>
      <rect>
        30 24 3 13</rect></_>
    <_>
      <rect>
        30 24 10 9</rect></_>
    <_>
      <rect>
        30 27 5 11</rect></_>
    <_>
      <rect>
        31 0 3 28</rect></_>
    <_>
      <rect>
        31 0 8 18</rect></_>
    <_>
      <rect>
        31 6 6 9</rect></_>
    <_>
      <rect>
        31 7 7 20</rect></_>
    <_>
      <rect>
        31 13 7 10</rect></_>
    <_>
      <rect>
        31 21 5 9</rect></_>
    <_>
      <rect>
        31 25 4 4</rect></_>
    <_>
      <rect>
        32 0 3 19</rect></_>
    <_>
      <rect>
        32 0 3 31</rect></_>
    <_>
      <rect>
        32 6 3 13</rect></_>
    <_>
      <rect>
        32 31 4 6</rect></_>
    <_>
      <rect>
        33 0 4 18</rect></_>
    <_>
      <rect>
        33 6 5 15</rect></_>
    <_>
      <rect>
        33 12 5 4</rect></_>
    <_>
      <rect>
        33 17 5 19</rect></_>
    <_>
      <rect>
        34 33 4 5</rect></_>
    <_>
      <rect>
        35 1 4 24</rect></_>
    <_>
      <rect>
        35 31 3 5</rect></_>
    <_>
      <rect>
        36 2 3 15</rect></_>
    <_>
      <rect>
        36 3 3 22</rect></_>
    <_>
      <rect>
        37 5 3 30</rect></_></features></cascade>
</opencv_storage>
