<?xml version="1.0"?>
<opencv_storage>
<cascade>
  <stageType>BOOST</stageType>
  <featureType>LBP</featureType>
  <height>24</height>
  <width>24</width>
  <stageParams>
    <boostType>GAB</boostType>
    <minHitRate>9.9900001287460327e-001</minHitRate>
    <maxFalseAlarm>5.0000000000000000e-001</maxFalseAlarm>
    <weightTrimRate>9.4999999999999996e-001</weightTrimRate>
    <maxDepth>1</maxDepth>
    <maxWeakCount>100</maxWeakCount></stageParams>
  <featureParams>
    <maxCatCount>256</maxCatCount></featureParams>
  <stageNum>18</stageNum>
  <stages>
    <!-- stage 0 -->
    <_>
      <maxWeakCount>3</maxWeakCount>
      <stageThreshold>-1.3061755895614624e+000</stageThreshold>
      <weakClassifiers>
        <_>
          <internalNodes>
            0 -1 2 -619185665 -3686185 1359040631 2132758555 453559259
            -1089492759 1930394107 2136961759</internalNodes>
          <leafValues>
            -9.2270004749298096e-001 5.7951480150222778e-001</leafValues></_>
        <_>
          <internalNodes>
            0 -1 89 -1743531856 -2004365120 1083274709 -1718628039
            -1735398401 -1970566645 -656549633 -269485569</internalNodes>
          <leafValues>
            -8.3907073736190796e-001 4.6281170845031738e-001</leafValues></_>
        <_>
          <internalNodes>
            0 -1 63 -102738704 -46837071 1393643773 -178793131
            -930289475 -90380287 -253632260 -587411244</internalNodes>
          <leafValues>
            -8.4628725051879883e-001 4.7378286719322205e-001</leafValues></_></weakClassifiers></_>
    <!-- stage 1 -->
    <_>
      <maxWeakCount>5</maxWeakCount>
      <stageThreshold>-1.3103916645050049e+000</stageThreshold>
      <weakClassifiers>
        <_>
          <internalNodes>
            0 -1 3 -15665 -10763755 -1860484773 -553169697 -905772817
            -1718943713 -238073601 -48641</internalNodes>
          <leafValues>
            -7.6852297782897949e-001 6.0677963495254517e-001</leafValues></_>
        <_>
          <internalNodes>
            0 -1 48 -1657014273 -552085253 -721161219 -39854881
            -2127824913 -1078859031 290182143 285210111</internalNodes>
          <leafValues>
            -8.9178210496902466e-001 4.4081163406372070e-001</leafValues></_>
        <_>
          <internalNodes>
            0 -1 104 -1348485313 -1365552366 -750794251 -18950320
            -101984393 -807855222 -2921739 -75828236</internalNodes>
          <leafValues>
            -7.1105992794036865e-001 5.7584857940673828e-001</leafValues></_>
        <_>
          <internalNodes>
            0 -1 109 -1162289804 927924647 -1849458489 189387321
            -1710499425 -1693818485 -1727791619 -1073741825</internalNodes>
          <leafValues>
            -7.8406298160552979e-001 5.3020566701889038e-001</leafValues></_>
        <_>
          <internalNodes>
            0 -1 85 792409971 798479829 -707407369 -10522145 248205695
            -1212248421 498012407 -1835532</internalNodes>
          <leafValues>
            -7.2269439697265625e-001 5.5812782049179077e-001</leafValues></_></weakClassifiers></_>
    <!-- stage 2 -->
    <_>
      <maxWeakCount>6</maxWeakCount>
      <stageThreshold>-1.6762176752090454e+000</stageThreshold>
      <weakClassifiers>
        <_>
          <internalNodes>
            0 -1 6 2069889007 -608839205 13849503 -547499569 2004610943
            2079032299 2132491199 2147482623</internalNodes>
          <leafValues>
            -8.6969518661499023e-001 3.1714957952499390e-001</leafValues></_>
        <_>
          <internalNodes>
            0 -1 14 -521146737 -499170345 -1063606033 -490809129
            1114063671 -684572637 -228105933 -161</internalNodes>
          <leafValues>
            -6.6184264421463013e-001 5.9205240011215210e-001</leafValues></_>
        <_>
          <internalNodes>
            0 -1 60 -4461273 789566343 1595530067 -34212869 -2507777
            266064011 -73860369 -278545</internalNodes>
          <leafValues>
            -6.3654643297195435e-001 5.9681904315948486e-001</leafValues></_>
        <_>
          <internalNodes>
            0 -1 113 -139460817 -1482009297 -1012408334 -17050633
            -68424705 -541351105 -173018639 -721421569</internalNodes>
          <leafValues>
            -6.4027136564254761e-001 6.1049634218215942e-001</leafValues></_>
        <_>
          <internalNodes>
            0 -1 20 -219157969 -69208581 -368915746 -125897745
            -702348987 -750057461 -219421873 -142606337</internalNodes>
          <leafValues>
            -5.9236073493957520e-001 6.3069337606430054e-001</leafValues></_>
        <_>
          <internalNodes>
            0 -1 108 -290479485 -1567891042 -855530169 -1942749249
            -1590689845 135102647 -1997551697 -1358971137</internalNodes>
          <leafValues>
            -6.9329315423965454e-001 5.3765392303466797e-001</leafValues></_></weakClassifiers></_>
    <!-- stage 3 -->
    <_>
      <maxWeakCount>6</maxWeakCount>
      <stageThreshold>-1.6504739522933960e+000</stageThreshold>
      <weakClassifiers>
        <_>
          <internalNodes>
            0 -1 127 -6291457 -806644921 -72232013 -134220451 -336592897
            -808473925 -509945903 -257</internalNodes>
          <leafValues>
            -6.4830321073532104e-001 6.1820852756500244e-001</leafValues></_>
        <_>
          <internalNodes>
            0 -1 90 665794367 660315515 -576364545 -8389675 268432383
            -1073900375 110817781 -27</internalNodes>
          <leafValues>
            -6.4761507511138916e-001 5.2693134546279907e-001</leafValues></_>
        <_>
          <internalNodes>
            0 -1 125 -1351632901 720288287 -86928953 -1151670021
            -21496875 -292575044 -241438220 -822150764</internalNodes>
          <leafValues>
            -6.4942556619644165e-001 5.6818145513534546e-001</leafValues></_>
        <_>
          <internalNodes>
            0 -1 12 -488717593 -8961287 2124086143 -1098954401
            -161591275 -1612903 -5407873 -26509441</internalNodes>
          <leafValues>
            -6.1394506692886353e-001 5.5320388078689575e-001</leafValues></_>
        <_>
          <internalNodes>
            0 -1 115 805257023 686636890 2089188817 779973616 -21238785
            -1946569485 -3426443 -268895500</internalNodes>
          <leafValues>
            -6.8777984380722046e-001 4.9512505531311035e-001</leafValues></_>
        <_>
          <internalNodes>
            0 -1 97 800791511 772863474 -743186633 -417139792 -343184524
            -1077738849 -674235019 -35586224</internalNodes>
          <leafValues>
            -7.6085662841796875e-001 4.2276045680046082e-001</leafValues></_></weakClassifiers></_>
    <!-- stage 4 -->
    <_>
      <maxWeakCount>5</maxWeakCount>
      <stageThreshold>-1.4668897390365601e+000</stageThreshold>
      <weakClassifiers>
        <_>
          <internalNodes>
            0 -1 4 -10616833 -35661873 -245891833 -7647314 -100925441
            -6317621 -875954177 -4243585</internalNodes>
          <leafValues>
            -6.8117266893386841e-001 5.6975227594375610e-001</leafValues></_>
        <_>
          <internalNodes>
            0 -1 13 -496876466 -285235049 -892055141 -19994785
            1628454982 -945155569 1931893631 -25209153</internalNodes>
          <leafValues>
            -8.1815212965011597e-001 3.2554388046264648e-001</leafValues></_>
        <_>
          <internalNodes>
            0 -1 76 937341939 -539107497 1561468831 -16427019 696368891
            -1077855196 782882030 497382641</internalNodes>
          <leafValues>
            -6.8613517284393311e-001 4.0199995040893555e-001</leafValues></_>
        <_>
          <internalNodes>
            0 -1 21 -86612401 1862242523 -396729649 -490052657
            1998674500 -869415809 2034293555 -747115521</internalNodes>
          <leafValues>
            -6.0725581645965576e-001 4.3751654028892517e-001</leafValues></_>
        <_>
          <internalNodes>
            0 -1 38 1329614404 -1181473 1997098863 -3318947 2077710335
            -69512787 2147175295 1609530351</internalNodes>
          <leafValues>
            -8.6264234781265259e-001 3.0322536826133728e-001</leafValues></_></weakClassifiers></_>
    <!-- stage 5 -->
    <_>
      <maxWeakCount>5</maxWeakCount>
      <stageThreshold>-1.1931501626968384e+000</stageThreshold>
      <weakClassifiers>
        <_>
          <internalNodes>
            0 -1 11 -648293377 -7382952 -586436131 -540155627 -192301057
            -36729893 -710297121 1356853199</internalNodes>
          <leafValues>
            -8.3602148294448853e-001 1.3269494473934174e-001</leafValues></_>
        <_>
          <internalNodes>
            0 -1 26 -2065 -83886481 -1094734098 -218628353 -8392889
            -147980425 -142625025 -138412033</internalNodes>
          <leafValues>
            -5.1458334922790527e-001 6.1544716358184814e-001</leafValues></_>
        <_>
          <internalNodes>
            0 -1 95 -1389101065 -1095729284 -9 -80478351 -536872961
            -268445697 -268435977 -33556995</internalNodes>
          <leafValues>
            -4.8565042018890381e-001 5.8626317977905273e-001</leafValues></_>
        <_>
          <internalNodes>
            0 -1 18 -218371346 -3026671 -1073552690 -794848820
            1891323206 -280350709 -259261761 -744522785</internalNodes>
          <leafValues>
            -6.7593646049499512e-001 4.5021188259124756e-001</leafValues></_>
        <_>
          <internalNodes>
            0 -1 28 -1089815774 -15961708 -786710057 -571189067
            -1151714598 -105446775 -87290916 -577377836</internalNodes>
          <leafValues>
            -7.2158849239349365e-001 3.9582982659339905e-001</leafValues></_></weakClassifiers></_>
    <!-- stage 6 -->
    <_>
      <maxWeakCount>7</maxWeakCount>
      <stageThreshold>-1.2884060144424438e+000</stageThreshold>
      <weakClassifiers>
        <_>
          <internalNodes>
            0 -1 128 -87033973 -341343870 -1861889261 -14954495
            -391253873 -1960105589 -1070866208 -605029417</internalNodes>
          <leafValues>
            -6.7414635419845581e-001 3.6888888478279114e-001</leafValues></_>
        <_>
          <internalNodes>
            0 -1 50 -306081 -612822633 269375839 -1253224367 -1328596757
            -87359245 -1991363610 -81888538</internalNodes>
          <leafValues>
            -6.2649160623550415e-001 4.2054426670074463e-001</leafValues></_>
        <_>
          <internalNodes>
            0 -1 117 -70779230 -452495446 -1197747790 -14814050
            -385293849 -2019377127 -1041541772 -721423117</internalNodes>
          <leafValues>
            -6.6627389192581177e-001 3.8284015655517578e-001</leafValues></_>
        <_>
          <internalNodes>
            0 -1 71 2090062046 2103283762 -1870564007 -48553437
            -788273733 -2011446294 -658949378 1560272015</internalNodes>
          <leafValues>
            -6.2787759304046631e-001 4.3388348817825317e-001</leafValues></_>
        <_>
          <internalNodes>
            0 -1 45 -956691401 -1130606377 -804470529 2061300305
            -219654848 -8265728 -1501535496 -25493889</internalNodes>
          <leafValues>
            -6.4644777774810791e-001 4.1326799988746643e-001</leafValues></_>
        <_>
          <internalNodes>
            0 -1 24 -293868629 -301600289 -1944829700 -225017345
            -1586935803 -1069972990 784833202 -155713969</internalNodes>
          <leafValues>
            -5.6739962100982666e-001 4.7052952647209167e-001</leafValues></_>
        <_>
          <internalNodes>
            0 -1 59 -639125034 -606088737 -803055070 -682454760
            -661657144 459376650 -661853304 -244193438</internalNodes>
          <leafValues>
            -5.9366333484649658e-001 4.3926641345024109e-001</leafValues></_></weakClassifiers></_>
    <!-- stage 7 -->
    <_>
      <maxWeakCount>7</maxWeakCount>
      <stageThreshold>-1.4899268150329590e+000</stageThreshold>
      <weakClassifiers>
        <_>
          <internalNodes>
            0 -1 116 -1915767109 -1953560577 -1056943791 -4328999
            -242234399 -861657 -75371024 -54599184</internalNodes>
          <leafValues>
            -7.5786924362182617e-001 1.5562403202056885e-001</leafValues></_>
        <_>
          <internalNodes>
            0 -1 43 241036996 487718288 -644364077 -174350275 2037173247
            -1149648724 962461135 -5506833</internalNodes>
          <leafValues>
            -6.8771189451217651e-001 3.1490290164947510e-001</leafValues></_>
        <_>
          <internalNodes>
            0 -1 126 -886311005 -821044864 -721193999 -275258427
            -587469825 -824573718 -235940875 -989858370</internalNodes>
          <leafValues>
            -5.4463398456573486e-001 4.6483495831489563e-001</leafValues></_>
        <_>
          <internalNodes>
            0 -1 69 408354816 1024135569 369169727 1943309107
            -1190547212 -1206089308 -1035080742 -2139043024</internalNodes>
          <leafValues>
            -6.2004637718200684e-001 4.2410597205162048e-001</leafValues></_>
        <_>
          <internalNodes>
            0 -1 22 -319836497 1822052327 1176039966 1919058575
            -148960508 -98860278 -658253259 -696845745</internalNodes>
          <leafValues>
            -6.4445441961288452e-001 4.1145333647727966e-001</leafValues></_>
        <_>
          <internalNodes>
            0 -1 94 -1359233229 -1360276516 -610937355 -6961253
            616808088 -208695096 529200125 -527910</internalNodes>
          <leafValues>
            -5.5654495954513550e-001 4.8443770408630371e-001</leafValues></_>
        <_>
          <internalNodes>
            0 -1 120 -487633397 295387795 8853659 154358787 -506529253
            475167499 1856746875 104852395</internalNodes>
          <leafValues>
            -6.7729419469833374e-001 4.0280562639236450e-001</leafValues></_></weakClassifiers></_>
    <!-- stage 8 -->
    <_>
      <maxWeakCount>7</maxWeakCount>
      <stageThreshold>-1.3495321273803711e+000</stageThreshold>
      <weakClassifiers>
        <_>
          <internalNodes>
            0 -1 10 -419443473 -254393777 -1073528313 -1152169125
            1120100467 -1190444529 -236226697 -12881033</internalNodes>
          <leafValues>
            -7.2917848825454712e-001 2.0000000298023224e-001</leafValues></_>
        <_>
          <internalNodes>
            0 -1 64 -876610102 1264419099 17072282 -411740258 -572658724
            1464912092 -303043862 -11404292</internalNodes>
          <leafValues>
            -6.5427112579345703e-001 3.2389554381370544e-001</leafValues></_>
        <_>
          <internalNodes>
            0 -1 111 -1383336973 -1932836714 -649602057 -178610660
            -627099971 -82079103 -679281419 -34866848</internalNodes>
          <leafValues>
            -5.5987691879272461e-001 4.3156638741493225e-001</leafValues></_>
        <_>
          <internalNodes>
            0 -1 102 -1924680397 -1370169782 -150874668 -1118506348
            -392588847 -498937681 -217349407 -34280783</internalNodes>
          <leafValues>
            -6.1003470420837402e-001 3.7261670827865601e-001</leafValues></_>
        <_>
          <internalNodes>
            0 -1 107 -627054557 -1298159215 -2138050092 -1718578741
            -796134230 956690847 -864020194 -1078988389</internalNodes>
          <leafValues>
            -5.7303160429000854e-001 4.1791921854019165e-001</leafValues></_>
        <_>
          <internalNodes>
            0 -1 33 -42991834 -330622562 155468535 -223165809 -276088822
            -649477095 -206742530 -25166978</internalNodes>
          <leafValues>
            -5.4906606674194336e-001 4.3793106079101563e-001</leafValues></_>
        <_>
          <internalNodes>
            0 -1 93 -604573876 -97061986 -1541877364 1923013148
            -425190571 1540325639 -489702988 -143223434</internalNodes>
          <leafValues>
            -5.6406980752944946e-001 4.2373821139335632e-001</leafValues></_></weakClassifiers></_>
    <!-- stage 9 -->
    <_>
      <maxWeakCount>8</maxWeakCount>
      <stageThreshold>-1.3002541065216064e+000</stageThreshold>
      <weakClassifiers>
        <_>
          <internalNodes>
            0 -1 51 1944018559 -73793795 -168111233 -36349537 2064284604
            -561478680 -74257429 -3457106</internalNodes>
          <leafValues>
            -6.8489444255828857e-001 1.9492293894290924e-001</leafValues></_>
        <_>
          <internalNodes>
            0 -1 110 -250610910 1267713450 -1894714893 -824192742
            -347610113 -872938341 1940624373 -992085921</internalNodes>
          <leafValues>
            -6.9203668832778931e-001 2.8704828023910522e-001</leafValues></_>
        <_>
          <internalNodes>
            0 -1 32 1263398634 1700453776 -1808556354 -573602734
            1411146428 1532295680 428740543 -1134954</internalNodes>
          <leafValues>
            -7.0035505294799805e-001 2.9250270128250122e-001</leafValues></_>
        <_>
          <internalNodes>
            0 -1 103 -2035304521 -1501512274 -209324571 -104839972
            -348679673 -754216831 -69076207 -271648656</internalNodes>
          <leafValues>
            -6.2989294528961182e-001 3.2438656687736511e-001</leafValues></_>
        <_>
          <internalNodes>
            0 -1 75 -673513505 -170598049 -670891532 -45715050
            -145365575 -1293478748 -1417270532 1970603012</internalNodes>
          <leafValues>
            -7.1036267280578613e-001 2.9618707299232483e-001</leafValues></_>
        <_>
          <internalNodes>
            0 -1 8 -1367961914 1249018559 -737928803 -1425642881
            538198563 -653784946 1904234546 2071413079</internalNodes>
          <leafValues>
            -7.1915823221206665e-001 2.8802469372749329e-001</leafValues></_>
        <_>
          <internalNodes>
            0 -1 53 851061307 -1614827588 -33 -524291 -553648193
            -37810370 -725555 -29011611</internalNodes>
          <leafValues>
            -3.8164135813713074e-001 6.1084818840026855e-001</leafValues></_>
        <_>
          <internalNodes>
            0 -1 91 200504099 -1903930479 -685581945 2075588484 58925815
            1791721642 -1695305227 -2100256</internalNodes>
          <leafValues>
            -6.3294655084609985e-001 3.7680751085281372e-001</leafValues></_></weakClassifiers></_>
    <!-- stage 10 -->
    <_>
      <maxWeakCount>7</maxWeakCount>
      <stageThreshold>-1.3892238140106201e+000</stageThreshold>
      <weakClassifiers>
        <_>
          <internalNodes>
            0 -1 114 -560728871 -1660172835 -1811156592 -1719150091
            -73563973 -88489845 -645300083 -33568277</internalNodes>
          <leafValues>
            -6.4188164472579956e-001 2.2507707774639130e-001</leafValues></_>
        <_>
          <internalNodes>
            0 -1 15 -154418450 -610448483 -792507299 458113483
            -762097596 -739635063 -159351842 -146343141</internalNodes>
          <leafValues>
            -5.7587289810180664e-001 3.4445482492446899e-001</leafValues></_>
        <_>
          <internalNodes>
            0 -1 68 -86514942 -1249293877 -527204254 -748693041
            1107377005 1661140993 1676079548 1976955895</internalNodes>
          <leafValues>
            -6.2017524242401123e-001 3.2571229338645935e-001</leafValues></_>
        <_>
          <internalNodes>
            0 -1 29 -328097752 -1610880742 1409390589 -1748785127
            -194397269 -205977598 -1740595721 -653966015</internalNodes>
          <leafValues>
            -5.5667841434478760e-001 3.6489635705947876e-001</leafValues></_>
        <_>
          <internalNodes>
            0 -1 47 1396959942 1439023599 1211191954 836084079
            -1182140276 1091580036 -151261554 -229508654</internalNodes>
          <leafValues>
            -5.1699250936508179e-001 3.9900133013725281e-001</leafValues></_>
        <_>
          <internalNodes>
            0 -1 105 -235152926 -288484908 1569845298 -37372909
            -1165862101 198089129 -777834284 1172017847</internalNodes>
          <leafValues>
            -7.1349483728408813e-001 2.7848526835441589e-001</leafValues></_>
        <_>
          <internalNodes>
            0 -1 84 -1079297093 -774958709 1703272849 -36398114
            704852191 -208961117 2055410101 -536887556</internalNodes>
          <leafValues>
            -4.9296841025352478e-001 4.1469669342041016e-001</leafValues></_></weakClassifiers></_>
    <!-- stage 11 -->
    <_>
      <maxWeakCount>8</maxWeakCount>
      <stageThreshold>-1.9504824876785278e+000</stageThreshold>
      <weakClassifiers>
        <_>
          <internalNodes>
            0 -1 25 -18876705 -681663909 -532625297 -629505617 -70039032
            -98481538 -1950094390 -42730625</internalNodes>
          <leafValues>
            -6.3811457157135010e-001 2.1392016112804413e-001</leafValues></_>
        <_>
          <internalNodes>
            0 -1 5 1564856319 -241315438 1167273837 -554588244
            1476458685 -402645847 2056808687 2141149931</internalNodes>
          <leafValues>
            -7.4805438518524170e-001 2.2122588753700256e-001</leafValues></_>
        <_>
          <internalNodes>
            0 -1 1 548045474 -305737512 -56650817 -547402540 687991479
            -1155800942 1443321653 -8961935</internalNodes>
          <leafValues>
            -6.6886174678802490e-001 2.6314386725425720e-001</leafValues></_>
        <_>
          <internalNodes>
            0 -1 83 -278967810 -490807889 -2130050596 -221216514
            -1851671784 -187662060 -1080446980 -255527962</internalNodes>
          <leafValues>
            -6.2102657556533813e-001 3.1949833035469055e-001</leafValues></_>
        <_>
          <internalNodes>
            0 -1 79 -404756410 -465387393 101420736 -255412022
            -486280686 1913852458 -340027836 -948704322</internalNodes>
          <leafValues>
            -5.2540236711502075e-001 3.9374661445617676e-001</leafValues></_>
        <_>
          <internalNodes>
            0 -1 124 -541067077 -1962675735 -2130474624 -1611795049
            2034217979 1208516631 12310453 1100990959</internalNodes>
          <leafValues>
            -4.6963706612586975e-001 4.3258666992187500e-001</leafValues></_>
        <_>
          <internalNodes>
            0 -1 54 -1065754462 -79689569 1679148445 -7287971 -350511367
            -114123728 -600012293 -2010867062</internalNodes>
          <leafValues>
            -4.6382832527160645e-001 4.7222465276718140e-001</leafValues></_>
        <_>
          <internalNodes>
            0 -1 82 797586869 -669768 1367471775 1023009493 248197049
            -1081709948 998317311 536618062</internalNodes>
          <leafValues>
            -7.5850963592529297e-001 2.8315675258636475e-001</leafValues></_></weakClassifiers></_>
    <!-- stage 12 -->
    <_>
      <maxWeakCount>9</maxWeakCount>
      <stageThreshold>-1.4184150695800781e+000</stageThreshold>
      <weakClassifiers>
        <_>
          <internalNodes>
            0 -1 19 -67124001 -218381169 -1065286996 2060686987
            -248538877 -635707127 -106570029 -143131777</internalNodes>
          <leafValues>
            -6.3409769535064697e-001 2.3516948521137238e-001</leafValues></_>
        <_>
          <internalNodes>
            0 -1 121 -559202248 -1944387430 302039448 111528029
            -339615316 414024330 -576202532 -826550017</internalNodes>
          <leafValues>
            -5.8198237419128418e-001 2.9905986785888672e-001</leafValues></_>
        <_>
          <internalNodes>
            0 -1 49 -553689251 -86216585 -788463273 -1787072289
            2077176704 -863096628 -389137720 -25154693</internalNodes>
          <leafValues>
            -5.1529288291931152e-001 3.5153603553771973e-001</leafValues></_>
        <_>
          <internalNodes>
            0 -1 73 1937499119 2122145599 -12648462 -1998882 -143228945
            -412000257 -134873618 -772415505</internalNodes>
          <leafValues>
            -3.6720985174179077e-001 5.2229440212249756e-001</leafValues></_>
        <_>
          <internalNodes>
            0 -1 112 -1886931465 -325657709 -783695139 -11693604
            -338980110 -108885341 -83191052 -306153068</internalNodes>
          <leafValues>
            -4.7940465807914734e-001 3.7316444516181946e-001</leafValues></_>
        <_>
          <internalNodes>
            0 -1 130 -77333525 -901280050 -1856284864 -1214418535
            464181238 1270398976 1171388163 -1745488425</internalNodes>
          <leafValues>
            -4.6214056015014648e-001 4.1074967384338379e-001</leafValues></_>
        <_>
          <internalNodes>
            0 -1 72 -620781048 1683046799 -1862184890 -1563770722
            -138974896 1986545701 -236458424 -490738926</internalNodes>
          <leafValues>
            -5.2060538530349731e-001 3.5795077681541443e-001</leafValues></_>
        <_>
          <internalNodes>
            0 -1 86 1904263176 -547520406 -1585199849 1035798797
            -702531956 -323976677 -1178006819 1418050</internalNodes>
          <leafValues>
            -6.1816662549972534e-001 3.0898636579513550e-001</leafValues></_>
        <_>
          <internalNodes>
            0 -1 66 387806138 2135323544 419525079 1564596125 1069939934
            -1232277372 1741183743 769356269</internalNodes>
          <leafValues>
            -7.5533324480056763e-001 2.4274362623691559e-001</leafValues></_></weakClassifiers></_>
    <!-- stage 13 -->
    <_>
      <maxWeakCount>10</maxWeakCount>
      <stageThreshold>-1.4140967130661011e+000</stageThreshold>
      <weakClassifiers>
        <_>
          <internalNodes>
            0 -1 16 -487593265 -862205043 -2143272365 -425147318
            1617113682 -268304382 -230231041 -177734801</internalNodes>
          <leafValues>
            -6.8366163969039917e-001 1.0620915144681931e-001</leafValues></_>
        <_>
          <internalNodes>
            0 -1 80 -199886641 -635342560 1073968467 -599559662
            -527042069 -1578255967 -2124285698 232258559</internalNodes>
          <leafValues>
            -6.6114109754562378e-001 2.4810166656970978e-001</leafValues></_>
        <_>
          <internalNodes>
            0 -1 42 29338250 1375593679 413244082 1964752743 -476074294
            1879655002 -33752888 1702081487</internalNodes>
          <leafValues>
            -5.1010799407958984e-001 3.4691473841667175e-001</leafValues></_>
        <_>
          <internalNodes>
            0 -1 123 -914373149 352706955 322820341 -2064920353
            -775842941 1682608315 -1857953627 -1915235077</internalNodes>
          <leafValues>
            -4.4643804430961609e-001 4.2718768119812012e-001</leafValues></_>
        <_>
          <internalNodes>
            0 -1 31 -425849262 2069433025 -1013773321 462032923
            1930117989 -121102236 1973625066 -80577749</internalNodes>
          <leafValues>
            -5.8704578876495361e-001 3.2046753168106079e-001</leafValues></_>
        <_>
          <internalNodes>
            0 -1 52 -495055781 -578676341 -897262657 -58699261
            -920750081 -83131861 -82646210 -17167394</internalNodes>
          <leafValues>
            -4.9412921071052551e-001 3.8008207082748413e-001</leafValues></_>
        <_>
          <internalNodes>
            0 -1 9 -96155000 -933561730 385944187 2030158045 1075860133
            -1476300278 -351578243 -615823337</internalNodes>
          <leafValues>
            -6.9370055198669434e-001 2.7064514160156250e-001</leafValues></_>
        <_>
          <internalNodes>
            0 -1 70 1433519399 -883613433 822352414 -553565514
            -916593674 1670479901 -1627080002 -101359682</internalNodes>
          <leafValues>
            -4.5725923776626587e-001 4.1596832871437073e-001</leafValues></_>
        <_>
          <internalNodes>
            0 -1 92 -1362109605 34492758 -666180113 -20278956 1535883635
            -139820893 -1087540492 -4404832</internalNodes>
          <leafValues>
            -5.8759939670562744e-001 3.3866700530052185e-001</leafValues></_>
        <_>
          <internalNodes>
            0 -1 35 195276704 894480830 -686585635 -673862799 1807986355
            -548464216 1535878908 1297581188</internalNodes>
          <leafValues>
            -6.5208995342254639e-001 2.8698647022247314e-001</leafValues></_></weakClassifiers></_>
    <!-- stage 14 -->
    <_>
      <maxWeakCount>9</maxWeakCount>
      <stageThreshold>-1.4851667881011963e+000</stageThreshold>
      <weakClassifiers>
        <_>
          <internalNodes>
            0 -1 37 -635439122 291361483 -803678030 -203812717
            -229015352 319365445 -122034020 -252462097</internalNodes>
          <leafValues>
            -6.8402367830276489e-001 8.4126986563205719e-002</leafValues></_>
        <_>
          <internalNodes>
            0 -1 40 -522459445 -119802914 -497963142 -221080101
            2130992865 -652443633 -636490754 -145227850</internalNodes>
          <leafValues>
            -4.8097860813140869e-001 3.3661949634552002e-001</leafValues></_>
        <_>
          <internalNodes>
            0 -1 67 1021714195 -654228591 2097708510 -584709823
            999535357 -125822331 1068252134 -539295704</internalNodes>
          <leafValues>
            -6.1300516128540039e-001 2.9190048575401306e-001</leafValues></_>
        <_>
          <internalNodes>
            0 -1 128 -79180154 -477179390 1100054787 -6409967 -928975705
            6942922 488108192 -738223654</internalNodes>
          <leafValues>
            -4.6005278825759888e-001 3.6869713664054871e-001</leafValues></_>
        <_>
          <internalNodes>
            0 -1 61 -833772225 1591469467 -1323288195 -698811959
            1258506318 2040711193 -1681393428 -86316036</internalNodes>
          <leafValues>
            -4.4663676619529724e-001 3.8835632801055908e-001</leafValues></_>
        <_>
          <internalNodes>
            0 -1 122 -862729216 -1876959087 -2130053695 311162591
            -1414608320 621920337 -363867990 -1967132788</internalNodes>
          <leafValues>
            -5.8503913879394531e-001 2.9538598656654358e-001</leafValues></_>
        <_>
          <internalNodes>
            0 -1 55 -218387798 1937715398 -653176326 -134901027
            1503324874 1077150357 -208683574 -170405042</internalNodes>
          <leafValues>
            -4.0172624588012695e-001 4.3449833989143372e-001</leafValues></_>
        <_>
          <internalNodes>
            0 -1 98 -220230916 -567504440 -719241199 328866682
            -1562057958 -829366071 -89329649 279441806</internalNodes>
          <leafValues>
            -5.0340974330902100e-001 3.4577569365501404e-001</leafValues></_>
        <_>
          <internalNodes>
            0 -1 81 -1630170150 -150977209 -1257906670 1952358101
            -1152909383 -148532413 55032252 536158384</internalNodes>
          <leafValues>
            -6.6051751375198364e-001 2.7520671486854553e-001</leafValues></_></weakClassifiers></_>
    <!-- stage 15 -->
    <_>
      <maxWeakCount>10</maxWeakCount>
      <stageThreshold>-1.5738322734832764e+000</stageThreshold>
      <weakClassifiers>
        <_>
          <internalNodes>
            0 -1 96 -292300813 -421788213 -1928998412 -343982 -376010565
            -14974789 -1672825868 -39081324</internalNodes>
          <leafValues>
            -6.9097650051116943e-001 5.1051050424575806e-002</leafValues></_>
        <_>
          <internalNodes>
            0 -1 27 -20056146 -422797185 1075085444 -788694845
            -1165293054 -783941621 -108926274 -218369573</internalNodes>
          <leafValues>
            -5.0254118442535400e-001 3.3535030484199524e-001</leafValues></_>
        <_>
          <internalNodes>
            0 -1 56 -220231102 1918878671 1913052894 1356764095
            1937737288 1933912080 -252208294 -219169233</internalNodes>
          <leafValues>
            -4.3236652016639709e-001 4.0535071492195129e-001</leafValues></_>
        <_>
          <internalNodes>
            0 -1 0 717662898 -1277986026 -922230275 -178273999
            1537997823 1342343370 -313483756 -9082768</internalNodes>
          <leafValues>
            -6.1508524417877197e-001 2.7133762836456299e-001</leafValues></_>
        <_>
          <internalNodes>
            0 -1 74 -27278446 -405614194 1074796780 -254638102
            -661663936 1359071764 -1147028564 -252186386</internalNodes>
          <leafValues>
            -4.5785278081893921e-001 3.6022379994392395e-001</leafValues></_>
        <_>
          <internalNodes>
            0 -1 101 -870066000 412078292 -869837331 -1922062997
            -1064990499 -1310424926 -364804401 -1965036521</internalNodes>
          <leafValues>
            -6.0778236389160156e-001 2.7753108739852905e-001</leafValues></_>
        <_>
          <internalNodes>
            0 -1 106 -561361672 -1169029314 -1976181713 -1643439212
            -76018689 1026754862 -502168343 804664014</internalNodes>
          <leafValues>
            -5.7301628589630127e-001 2.8711092472076416e-001</leafValues></_>
        <_>
          <internalNodes>
            0 -1 44 -858518508 2059825227 -1073461890 404375936
            -87005084 -930938872 1994095294 -97622528</internalNodes>
          <leafValues>
            -6.8781065940856934e-001 2.4084044992923737e-001</leafValues></_>
        <_>
          <internalNodes>
            0 -1 129 424588960 -880094848 -518309885 -236989488
            -1412432937 -1949646706 -2083601724 1148707149</internalNodes>
          <leafValues>
            -6.0336685180664063e-001 2.7372342348098755e-001</leafValues></_>
        <_>
          <internalNodes>
            0 -1 88 754319370 1322258219 1342199730 -556513058 -67489213
            624109666 -203234308 -974982250</internalNodes>
          <leafValues>
            -6.1481970548629761e-001 2.7996778488159180e-001</leafValues></_></weakClassifiers></_>
    <!-- stage 16 -->
    <_>
      <maxWeakCount>10</maxWeakCount>
      <stageThreshold>-1.3965904712677002e+000</stageThreshold>
      <weakClassifiers>
        <_>
          <internalNodes>
            0 -1 57 -78063115 -10807535 -1886401075 -49698001 -611451969
            -1157070709 -546595729 -8449860</internalNodes>
          <leafValues>
            -6.2448561191558838e-001 1.6302186250686646e-001</leafValues></_>
        <_>
          <internalNodes>
            0 -1 39 -905788363 -385934927 -1040137252 -1496655743
            -394038686 -360642422 -89690161 -243632114</internalNodes>
          <leafValues>
            -5.8121919631958008e-001 2.6154547929763794e-001</leafValues></_>
        <_>
          <internalNodes>
            0 -1 34 1809313670 822480899 -2138447906 -561170081
            1362225634 1308854273 -1222989644 -357707042</internalNodes>
          <leafValues>
            -5.9535253047943115e-001 2.5680038332939148e-001</leafValues></_>
        <_>
          <internalNodes>
            0 -1 62 322024101 288698585 -796008501 -173953971 -230244471
            -1092799813 191032521 1444267720</internalNodes>
          <leafValues>
            -5.0882631540298462e-001 3.0821710824966431e-001</leafValues></_>
        <_>
          <internalNodes>
            0 -1 99 1981269635 -1130540763 -2044891001 -1702771757
            -1441416769 1029818563 -380657428 -1644215861</internalNodes>
          <leafValues>
            -4.7443696856498718e-001 3.3804419636726379e-001</leafValues></_>
        <_>
          <internalNodes>
            0 -1 23 -83891154 1205856743 -1037461297 -1560936417
            -516956607 -145444832 1902231171 1987550143</internalNodes>
          <leafValues>
            -5.8847475051879883e-001 2.6968547701835632e-001</leafValues></_>
        <_>
          <internalNodes>
            0 -1 77 -308806226 247943436 -268419120 -119729838
            -1431666257 1847591958 -209468235 -49428073</internalNodes>
          <leafValues>
            -6.2078440189361572e-001 2.5366157293319702e-001</leafValues></_>
        <_>
          <internalNodes>
            0 -1 7 -301797449 -1557665562 361795986 -11118757 1129929885
            139044867 1799362291 -49055935</internalNodes>
          <leafValues>
            -4.4453236460685730e-001 3.6811921000480652e-001</leafValues></_>
        <_>
          <internalNodes>
            0 -1 36 -1843132110 -1525624392 -209495457 789908848
            -1943721680 -811879170 -2017904124 -910923963</internalNodes>
          <leafValues>
            -7.1082335710525513e-001 2.3997837305068970e-001</leafValues></_>
        <_>
          <internalNodes>
            0 -1 87 -59250258 -1847482908 1056878248 1874554799
            -1343055108 485783023 1979314666 -2021676037</internalNodes>
          <leafValues>
            -3.6578238010406494e-001 4.9709472060203552e-001</leafValues></_></weakClassifiers></_>
    <!-- stage 17 -->
    <_>
      <maxWeakCount>10</maxWeakCount>
      <stageThreshold>-1.3542242050170898e+000</stageThreshold>
      <weakClassifiers>
        <_>
          <internalNodes>
            0 -1 41 -1164488323 -2937895 1495357917 -308983965
            -1415578437 -6356855 -279904337 -17355891</internalNodes>
          <leafValues>
            -5.6545704603195190e-001 2.3415264487266541e-001</leafValues></_>
        <_>
          <internalNodes>
            0 -1 65 -84433338 1357314519 268620382 1625086670 -636495548
            1381110283 -341849092 -260388102</internalNodes>
          <leafValues>
            -5.1909488439559937e-001 2.8614547848701477e-001</leafValues></_>
        <_>
          <internalNodes>
            0 -1 30 -1059470886 -631906099 -2142191208 1997750623
            -1404430136 -1615502831 2028636906 -260904326</internalNodes>
          <leafValues>
            -4.0966916084289551e-001 3.7449854612350464e-001</leafValues></_>
        <_>
          <internalNodes>
            0 -1 58 -671027244 -41570158 -587075627 -682502175
            -1424172627 -1148405367 1847699493 427233392</internalNodes>
          <leafValues>
            -6.8465590476989746e-001 2.2774745523929596e-001</leafValues></_>
        <_>
          <internalNodes>
            0 -1 17 -353139057 -422591413 314736895 -762256501
            -217642937 1930532419 -372776392 -210242921</internalNodes>
          <leafValues>
            -4.8481339216232300e-001 3.4860944747924805e-001</leafValues></_>
        <_>
          <internalNodes>
            0 -1 78 662778655 607664405 -586491649 -312705000 306424116
            2057504785 423758329 -117450508</internalNodes>
          <leafValues>
            -6.1694842576980591e-001 2.7266272902488708e-001</leafValues></_>
        <_>
          <internalNodes>
            0 -1 46 1111991042 835817820 1091584216 1465207197
            -879901716 1561404313 -1034262326 -1324225588</internalNodes>
          <leafValues>
            -6.0384649038314819e-001 2.4850170314311981e-001</leafValues></_>
        <_>
          <internalNodes>
            0 -1 119 -20639198 1371227779 1662257432 389144 -1038323702
            -699719676 -120868263 6230463</internalNodes>
          <leafValues>
            -6.1235612630844116e-001 2.5209417939186096e-001</leafValues></_>
        <_>
          <internalNodes>
            0 -1 100 -154218256 -23478191 -1549986523 1035296509
            -790570773 -1119993831 -863877681 -1080171825</internalNodes>
          <leafValues>
            -4.1606584191322327e-001 3.9552178978919983e-001</leafValues></_>
        <_>
          <internalNodes>
            0 -1 118 -178265630 -829632313 -1341066287 -270565176
            -1198541895 1221300327 -524832395 -996150795</internalNodes>
          <leafValues>
            -5.4228401184082031e-001 3.0521503090858459e-001</leafValues></_></weakClassifiers></_></stages>
  <features>
    <_>
      <rect>
        0 0 2 4</rect></_>
    <_>
      <rect>
        0 0 5 2</rect></_>
    <_>
      <rect>
        0 4 7 6</rect></_>
    <_>
      <rect>
        0 5 3 6</rect></_>
    <_>
      <rect>
        0 5 4 5</rect></_>
    <_>
      <rect>
        0 5 6 6</rect></_>
    <_>
      <rect>
        0 5 7 6</rect></_>
    <_>
      <rect>
        0 6 1 2</rect></_>
    <_>
      <rect>
        0 6 1 4</rect></_>
    <_>
      <rect>
        0 6 3 6</rect></_>
    <_>
      <rect>
        0 7 1 3</rect></_>
    <_>
      <rect>
        0 8 8 2</rect></_>
    <_>
      <rect>
        0 10 2 3</rect></_>
    <_>
      <rect>
        0 10 2 4</rect></_>
    <_>
      <rect>
        0 11 1 2</rect></_>
    <_>
      <rect>
        0 11 2 2</rect></_>
    <_>
      <rect>
        0 12 1 2</rect></_>
    <_>
      <rect>
        0 14 1 2</rect></_>
    <_>
      <rect>
        0 14 3 2</rect></_>
    <_>
      <rect>
        0 15 1 2</rect></_>
    <_>
      <rect>
        0 15 2 2</rect></_>
    <_>
      <rect>
        0 15 2 3</rect></_>
    <_>
      <rect>
        0 16 1 2</rect></_>
    <_>
      <rect>
        0 17 2 2</rect></_>
    <_>
      <rect>
        0 18 1 1</rect></_>
    <_>
      <rect>
        0 18 1 2</rect></_>
    <_>
      <rect>
        0 19 1 1</rect></_>
    <_>
      <rect>
        0 20 1 1</rect></_>
    <_>
      <rect>
        1 0 5 4</rect></_>
    <_>
      <rect>
        1 0 7 2</rect></_>
    <_>
      <rect>
        1 7 2 2</rect></_>
    <_>
      <rect>
        1 9 1 2</rect></_>
    <_>
      <rect>
        1 15 5 3</rect></_>
    <_>
      <rect>
        1 18 1 1</rect></_>
    <_>
      <rect>
        1 18 6 2</rect></_>
    <_>
      <rect>
        2 0 3 3</rect></_>
    <_>
      <rect>
        2 0 5 3</rect></_>
    <_>
      <rect>
        2 6 2 1</rect></_>
    <_>
      <rect>
        2 9 4 5</rect></_>
    <_>
      <rect>
        2 15 1 1</rect></_>
    <_>
      <rect>
        2 18 2 2</rect></_>
    <_>
      <rect>
        3 0 6 3</rect></_>
    <_>
      <rect>
        3 4 2 2</rect></_>
    <_>
      <rect>
        3 12 5 4</rect></_>
    <_>
      <rect>
        3 14 1 1</rect></_>
    <_>
      <rect>
        3 17 1 2</rect></_>
    <_>
      <rect>
        4 3 2 3</rect></_>
    <_>
      <rect>
        4 5 2 2</rect></_>
    <_>
      <rect>
        4 6 6 4</rect></_>
    <_>
      <rect>
        4 10 1 2</rect></_>
    <_>
      <rect>
        4 10 1 3</rect></_>
    <_>
      <rect>
        4 12 2 2</rect></_>
    <_>
      <rect>
        4 15 1 2</rect></_>
    <_>
      <rect>
        5 0 5 1</rect></_>
    <_>
      <rect>
        5 0 6 2</rect></_>
    <_>
      <rect>
        5 3 2 2</rect></_>
    <_>
      <rect>
        5 5 1 1</rect></_>
    <_>
      <rect>
        5 5 4 3</rect></_>
    <_>
      <rect>
        5 6 4 3</rect></_>
    <_>
      <rect>
        5 9 2 1</rect></_>
    <_>
      <rect>
        5 13 6 1</rect></_>
    <_>
      <rect>
        5 21 1 1</rect></_>
    <_>
      <rect>
        6 0 3 2</rect></_>
    <_>
      <rect>
        6 2 4 4</rect></_>
    <_>
      <rect>
        6 4 2 3</rect></_>
    <_>
      <rect>
        6 7 1 1</rect></_>
    <_>
      <rect>
        6 10 3 3</rect></_>
    <_>
      <rect>
        6 12 2 2</rect></_>
    <_>
      <rect>
        7 6 2 1</rect></_>
    <_>
      <rect>
        8 0 5 1</rect></_>
    <_>
      <rect>
        8 1 2 4</rect></_>
    <_>
      <rect>
        8 3 5 4</rect></_>
    <_>
      <rect>
        8 4 1 1</rect></_>
    <_>
      <rect>
        8 4 2 2</rect></_>
    <_>
      <rect>
        8 7 1 1</rect></_>
    <_>
      <rect>
        8 8 2 2</rect></_>
    <_>
      <rect>
        8 10 3 2</rect></_>
    <_>
      <rect>
        8 17 3 1</rect></_>
    <_>
      <rect>
        8 18 2 2</rect></_>
    <_>
      <rect>
        9 6 1 1</rect></_>
    <_>
      <rect>
        9 6 5 3</rect></_>
    <_>
      <rect>
        9 9 2 2</rect></_>
    <_>
      <rect>
        9 11 2 2</rect></_>
    <_>
      <rect>
        10 8 1 1</rect></_>
    <_>
      <rect>
        10 13 1 1</rect></_>
    <_>
      <rect>
        10 14 1 1</rect></_>
    <_>
      <rect>
        11 0 4 2</rect></_>
    <_>
      <rect>
        11 2 2 2</rect></_>
    <_>
      <rect>
        11 7 1 1</rect></_>
    <_>
      <rect>
        11 9 4 5</rect></_>
    <_>
      <rect>
        11 15 1 1</rect></_>
    <_>
      <rect>
        11 16 1 1</rect></_>
    <_>
      <rect>
        11 20 1 1</rect></_>
    <_>
      <rect>
        12 8 1 1</rect></_>
    <_>
      <rect>
        13 13 1 1</rect></_>
    <_>
      <rect>
        13 16 1 2</rect></_>
    <_>
      <rect>
        13 16 2 1</rect></_>
    <_>
      <rect>
        13 18 1 1</rect></_>
    <_>
      <rect>
        14 1 3 3</rect></_>
    <_>
      <rect>
        14 7 3 3</rect></_>
    <_>
      <rect>
        14 8 3 4</rect></_>
    <_>
      <rect>
        14 9 3 5</rect></_>
    <_>
      <rect>
        14 14 1 1</rect></_>
    <_>
      <rect>
        14 18 1 1</rect></_>
    <_>
      <rect>
        14 19 1 1</rect></_>
    <_>
      <rect>
        14 21 3 1</rect></_>
    <_>
      <rect>
        15 4 2 3</rect></_>
    <_>
      <rect>
        15 5 3 4</rect></_>
    <_>
      <rect>
        15 6 3 4</rect></_>
    <_>
      <rect>
        15 7 1 5</rect></_>
    <_>
      <rect>
        15 15 3 2</rect></_>
    <_>
      <rect>
        15 19 1 1</rect></_>
    <_>
      <rect>
        16 16 1 1</rect></_>
    <_>
      <rect>
        16 17 2 1</rect></_>
    <_>
      <rect>
        17 9 2 4</rect></_>
    <_>
      <rect>
        17 14 1 1</rect></_>
    <_>
      <rect>
        17 16 1 1</rect></_>
    <_>
      <rect>
        17 18 2 1</rect></_>
    <_>
      <rect>
        17 18 2 2</rect></_>
    <_>
      <rect>
        18 3 2 3</rect></_>
    <_>
      <rect>
        18 3 2 4</rect></_>
    <_>
      <rect>
        18 4 2 6</rect></_>
    <_>
      <rect>
        18 7 2 3</rect></_>
    <_>
      <rect>
        18 10 2 3</rect></_>
    <_>
      <rect>
        18 12 2 3</rect></_>
    <_>
      <rect>
        18 15 1 1</rect></_>
    <_>
      <rect>
        18 16 2 2</rect></_>
    <_>
      <rect>
        18 18 2 1</rect></_>
    <_>
      <rect>
        21 15 1 1</rect></_>
    <_>
      <rect>
        21 15 1 2</rect></_>
    <_>
      <rect>
        21 18 1 1</rect></_></features></cascade>
</opencv_storage>
